-0.142237	0.0163453	0.450441	0.116874	-0.320304	0.399872	0.227656	-0.363579	-0.33712	-0.462581	0.414948	-0.309409	0.404175	0.346464	-0.34304	-0.345573	0.351073	0.265987	-0.208606	0.0506176	0.32855	0.142051	-0.182299	-0.232105	-0.491299	0.443178	-0.124161	0.158986	0.51267	0.255979	0.0598973	0.356507	0.411287	-0.296193	0.084068	-0.215715	-0.183488	-0.146225	0.241971	0.372102	0.214474	0.138971	0.0354053	-0.442071	-0.318875	0.362092	0.0921249	0.309722	0.0972825	-0.0772834	-0.145767	0.419802	0.392397	-0.281757	-0.424471	-0.180685	-0.454649	-0.419584	0.229759	0.336207	0.399869	-0.0792108	0.139851	-0.114921	-0.297605	-0.176321	-0.0437193	-0.0137877	0.407848	-0.142492	0.0434573	-0.411717	-0.19528	0.021775	-0.192099	-0.128285	0.0537278	-0.0330058	-0.389492	-0.253899	-0.00798059	0.10771	0.184194	-0.200308	-0.427946	0.0871761	0.47824	-0.303308	-0.235588	0.197658	0.043381	0.122594	0.347445	-0.181794	-0.205646	0.267673	0.247634	0.183359	0.0792038	0.362512	-0.453466	0.0108734	-0.209826	0.000122936	-0.485168	0.171621	0.48059	-0.0600146	0.0953507	0.369686	0.368831	0.275536	-0.11861	0.469791	-0.167964	-0.266112	-0.424552	0.189418	0.369901	-0.565947	0.269799	-0.0136174	-0.197749	-0.224133	0.393515	-0.152992	0.108316	-0.17086	-0.0924679	-0.418191	-0.385061	0.433743	-0.132955	-0.169944	0.110187	0.195878	0.106555	-0.0719169	0.132344	-0.363105	-0.440037	-0.496419	0.0860706	0.433047	-0.76393	-0.0328992	0.0437099	-0.524787	0.00419904	0.22413	0.0436327	0.171023	0.717677	-0.0748764	0.321026	0.413255	0.120952	0.00115626	-0.227258	-0.0384392	0.479094	-0.452361	-0.316436	-0.117756	0.467071	-0.330409	-0.194795	-0.487969	-0.290531	0.318769	0.247312	-0.564122	-0.166027	-0.137385	-0.419965	-0.553354	0.0625307	-0.218126	-0.176442	-0.291581	0.417764	0.622254	0.565492	0.25032	0.173056	-0.128962	0.556101	0.0772319	-0.0846677	-0.444339	-0.360103	-0.234214	0.476501	-0.557233	-0.496473	0.236535	0.276564	0.201852	-0.317792	-0.066904	-0.562234	0.188261	-0.399159	-0.102455	-0.213429	0.157666	-0.21665	0.328009	-0.23843	0.378965	-0.0804137	0.371636	-0.224978	0.276445	0.463719	0.242186	0.211901	-0.19747	0.261933	0.392457	-0.335825	0.0406247	0.48562	0.462533	-0.278345	-0.301015	0.0127596	-0.171727	0.189214	0.161941	0.085208	0.484945	0.382306	-0.538696	0.16537	0.348294	0.613517	0.381256	-0.25492	0.34774	-0.22237	-0.069786	-0.210146	-0.0438748	0.463408	0.00731736	0.16701	-0.413768	-0.335041	-0.175973	0.00369865	0.122899	-0.188559	0.472767	-0.542595	-0.233102	0.100428	0.311418	-0.0460707	0.360575	-0.167948	-0.00629337	0.494312	0.521708	0.60484	0.492969	-0.237815	-0.0373766	-0.301776	-0.487239	0.222735	-0.398587	0.477386	-0.431124	-0.277127	-0.00629795	0.0642291	0.326365	-0.281879	-0.0554392	-0.233072	-0.483834	-0.386617	-0.00885283	-0.428503	-0.121858	0.625895	0.374043	0.612184	0.393382	0.426892	-0.148972	0.505391	-0.0119622	-0.0463874	0.157662	0.411439	0.302571	-0.0587634	0.499786	-0.430296	-0.224877	-0.32976	-0.133154	-0.235817	0.229516	0.211712	-0.214035	-0.0493696	0.051037	0.0163593	-0.0123073	0.356668	0.452281	0.213151	-0.0492739	-0.552543	0.318798	-0.180686	-0.579025	-0.103696	-0.355457	-0.531482	-0.390652	0.159958	0.0476852	0.449644	0.497131	0.461525	-0.556474	0.389453	0.0700153	-0.00946855	0.392295	0.69515	0.535188	0.0857938	-0.256916	0.346956	0.47254	0.754422	0.306509	0.203159	0.308566	0.00491724	0.059777	-0.147784	-0.0855042	-0.578415	-0.335475	0.452422	0.264667	-0.187063	0.472808	0.266557	0.424954	-0.0789347	-0.0347958	-0.211707	-0.0979032	0.68752	0.383942	-0.0191176	-0.361302	-0.109994	-0.294393	0.2728	-0.196308	0.204411	0.0207013	0.188941	-0.311666	0.404927	-0.253293	-0.309178	0.0505944	0.251612	-0.247213	-0.509526	0.464721	0.471648	0.101855	-0.0885631	0.108183	-0.233331	-0.0242335	-0.0115007	0.384493	0.276694	0.294065	-0.43413	-0.255478	-0.694551	0.541594	0.485036	0.136077	-0.283231	-0.178988	0.454485	0.0395052	-0.22878	-0.434927	-0.339973	0.294571	0.0502911	-0.162897	0.367336	0.394276	0.272423	-0.330053	0.0919318	-0.242811	0.447366	0.205619	-0.297798	0.395202	-0.105338	-0.712801	-0.0798461	-0.289819	-0.116138	0.772623	0.0995107	0.448165	0.185862	0.33491	0.348456	-0.0329555	0.169023	-0.0629754	-0.0783612	-0.262859	-0.494664	0.354427	-0.182646	0.270286	0.195847	0.240992	-0.112479	0.397935	-0.261142	0.672321	-0.111356	-0.109342	-0.395203	-0.889481	-0.0150572	-0.108882	-0.100588	0.0917711	0.459578	-0.0327682	0.0545588	-0.0858691	-0.246379	0.299944	0.166544	0.26534	-0.45949	-0.489323	-0.184835	0.335406	-0.476441	0.00440318	-0.327146	0.273651	0.198171	-0.362274	0.0265102	-0.47516	-0.319509	0.257414	-0.184571	-0.0666873	0.501528	0.196125	0.044058	0.544116	0.333858	-0.468573	-0.0687068	0.164701	-0.147394	0.393948	0.362411	0.299463	-0.135431	-0.053972	-0.292749	-0.135802	-0.483354	0.190387	-0.155329	-0.122076	-0.087563	-0.100239	-0.832526	-0.216364	-0.435651	-0.179096	0.15165	0.272425	-0.198966	-0.417138	-0.403154	0.495413	-0.222685	-0.0560837	0.302877	0.164157	0.246326	0.0908452	-0.0289163	-0.264951	-0.430631	-0.0407575	-0.347972	0.29542	-0.447348	-0.677584	-0.264068	0.167796	0.350664	-0.181321	0.239808	0.393418	-0.165128	-0.0790635	-0.204501	0.170646	0.106343	0.200043	0.451082	-0.138615	0.655437	0.360158	-0.298303	0.518029	0.288685	0.263787	0.0849133	-0.176992	-0.256892	0.0847272	0.0211353	-0.230948	0.100918	0.067055	0.0221638	-0.189947	0.103921	-0.0867809	-0.432305	-0.221292	-0.589634	-0.0945474	0.325823	-0.405423	-0.493918	0.638838	0.442703	-0.382849	-0.121466	0.442473	-0.0177641	0.17029	-0.0212653	-0.348084	0.244743	-0.0760063	0.0387712	0.106182	-0.210696	0.535205	-0.220278	0.468021	-0.0866227	0.306811	-0.384658	0.0415648	-0.21523	-0.16461	-0.300238	-0.274474	-0.0375284	-0.280179	-0.241703	-0.210018	0.113139	-0.144243	0.443172	0.442706	0.369676	0.208396	-0.211513	-0.0767998	0.419043	0.0990566	-0.0530794	0.107831	0.0453313	-0.26542	-0.336799	-0.38129	-0.0513234	0.187476	-0.394307	-0.0861955	-0.445446	0.0832296	-0.100761	0.0687575	-0.0521362	-0.386126	0.112409	0.415302	0.5198	0.00869003	0.271027	-0.443571	0.253502	-0.201381	0.0272073	0.497925	-0.128285	-0.22335	0.338595	0.306076	-0.435238	-0.278278	0.607772	0.440109	-0.159383	0.234297	-0.56891	0.451058	0.474559	0.0176026	0.10581	-0.361794	0.337478	-0.073944	0.134048	0.29053	-0.197725	-0.277978	-0.148091	0.0455184	0.258869	0.0228431	0.226249	-0.491668	0.00019837	-0.010616	-0.112934	-0.201909	0.477057	0.449456	-0.25699	0.0936898	-0.116924	0.0955115	0.481126	0.238195	0.0240311	0.409778	0.309717	0.198941	0.102863	0.0376102	0.200766	-0.469878	0.202139	0.246239	0.312098	-0.250241	0.260857	0.132191	0.173147	-0.345526	0.412554	-0.3458	0.181956	-0.0851619	-0.162269	0.513946	0.578458	0.455126	0.549513	-0.293229	0.549615	0.330532	0.316334	-0.0809038	0.130406	-0.202184	0.311914	0.098468	-0.464995	-0.0954466	0.0546739	0.439085	0.327726	0.439336	0.495826	-0.152875	0.296876	-0.261308	-0.366749	0.00978874	0.0390255	-0.0431914	0.241088	-0.38704	0.340744	-0.13402	-0.0540167	0.0779626	-0.365864	-0.0782572	-0.244614	-0.0978644	0.169539	-0.163374	-0.126446	-0.27437	0.463965	0.316164	0.206053	-0.187736	0.210058	0.045502	-0.356	-0.417769	-0.0788915	-0.121312	0.278358	0.177891	-0.0629608	-0.473954	-0.0596343	0.311013	0.385234	0.0237423	-0.233651	0.338907	0.395427	-0.122472	0.0538335	0.424084	-0.185371	0.0429689	-0.0536222	-0.394911	-0.380659	-0.186256	0.598388	0.213184	-0.0219608	0.446071	0.5896	0.510007	0.214771	-0.354765	0.390772	0.529265	0.0310498	0.146562	0.319846	0.593567	-0.167351	0.0947261	0.253041	0.489099	0.518919	0.57431	0.397791	0.170703	-0.0155519	0.0573873	0.0612021	0.586365	0.287527	0.127552	0.312006	0.406919	-0.335719	0.41171	-0.327265	-0.306299	-0.223289	-0.08446	0.355885	-0.120631	-0.0398419	-0.376699	-0.422694	-0.504807	0.254921	-0.0769988	-0.335387	0.0984033	0.107654	0.259514	0.415891	0.143788	-0.229026	-0.249107	-0.156728	0.1198	0.212546	0.181845	-0.416684	-0.205008	0.485351	0.217063	-0.222739	-0.160115	-0.105708	0.0800214	-0.203413	0.0408529	0.555645	0.265392	0.064136	0.385942	0.0826457	-0.315591	0.170202	-0.32758	-0.0791593	0.16483	0.430369	0.128346	0.194632	0.41644	-0.167867	-0.154989	0.281152	-0.120258	-0.130604	-0.368496	0.389638	-0.234931	-0.0895585	0.403934	-0.127923	0.309546	-0.528454	0.275065	-0.503343	0.259785	0.0815138	-0.166015	0.0222748	0.0440946	0.0559435	-0.106767	0.404159	-0.258809	0.123743	-0.252916	-0.27431	0.434019	0.385494	0.178915	0.457671	0.336268	0.0681513	-0.433977	-0.363412	0.241416	0.233561	0.217548	-0.385838	-0.415446	0.11761	-0.447485	0.256257	-0.580786	-0.577714	-0.511557	-0.514268	-0.556435	0.102305	0.0631396	-0.14627	0.233245	0.335633	-0.167373	-0.0663625	-0.3887	0.268975	-0.441038	0.395016	-0.127259	-0.584117	0.450516	0.019224	-0.318291	-0.364159	-0.656353	0.191417	-0.18184	-0.432061	-0.180118	-0.54818	-0.482877	-0.511283	-0.291417	-0.444653	0.232836	-0.106238	0.108326	-0.326243	-0.498754	0.412959	0.216139	-0.0120706	-0.0674917	0.216147	-0.103595	0.084685	-0.318732	0.044228	-0.170977	-0.363632	0.0754889	0.0224786	0.52323	0.473752	-0.123702	0.26766	0.374455	-0.0944611	0.18123	0.317222	-0.0988322	-0.234682	-0.438108	-0.0201947	-0.52651	-0.444581	0.295396	-0.179472	0.17925	-0.29519	0.249436	-0.257366	-0.137471	0.0787024	0.533003	0.112752	-0.174801	0.503929	-0.0262873	-0.160563	0.315943	0.52211	0.0800911	0.412588	0.149617	0.281613	0.316206	-0.131766	-0.319147	-0.346129	-0.144361	-0.0802433	0.223902	0.259013	-0.0909657	0.164632	0.021012	-0.00792701	0.332008	-0.110277	-0.440464	0.492061	0.801172	0.253661	0.527978	0.217357	-0.317596	0.778826	0.545787	0.63942	-0.219373	-0.355228	0.50179	0.277773	0.138021	0.0655018	-0.124743	-0.206214	-0.0290782	0.012414	-0.393265	0.392849	0.346278	-0.119526	-0.195303	-0.193545	-0.183962	-0.210823	0.272867	0.479819	-0.230503	0.311881	-0.359867	-0.23299	0.528015	0.219588	0.119006	-0.334653	0.245648	-0.334025	0.413925	-0.0615754	0.374645	-0.209337	0.0881186	-0.0548858	-0.481747	-0.258919	-0.292627	0.161915	-0.017655	-0.127308	-0.055681	-0.296332	0.344503	-0.142395	0.304318	-0.155856	0.464519	0.649018	-0.204096	-0.264214	0.178174	0.455104	0.0395618	-0.448352	0.172807	-0.198462	-0.315847	-0.201903	-0.0904848	-0.309981	0.0624827	0.457819	-0.0955726	-0.146596	0.323633	-0.42642	-0.248772	0.207755	0.170747	-0.0304129	0.122046	-0.128142	0.00662135	-0.0597354	-0.4641	0.430347	-0.191275	-0.137803	0.102053	-0.0232195	-0.434308	0.369322	-0.229398	-0.0193202	-0.432771	-0.182578	-0.283117	-0.303701	0.116313	-0.0562227	0.0679189	-0.461822	0.08446	0.0676748	0.254276	-0.2978	-0.116589	0.287677	-0.106052	0.136395	-0.387517	-0.532069	0.160601	-0.0912821	-0.0959564	-0.019623	-0.233735	-0.165797	0.0692888	0.291547	-0.446375	0.502083	0.450956	0.409871	0.543542	-0.00863001	0.0752666	-0.257027	0.291222	0.14452	0.0265969	0.171767	0.380872	-0.116015	-0.138679	-0.137023	-0.182391	-0.414157	0.0325699	-0.220748	-0.473614	0.324924	0.278029	0.0349505	-0.333149	0.135704	0.0141848	0.295639	0.0727764	-0.0854504	-0.281301	0.307686	-0.224485	0.15549	-0.44112	-0.192984	-0.0448469	-0.36147	0.179	-0.174081	-0.447399	-0.628174	-0.267987	0.0469542	0.0490493	-0.716553	0.143672	-0.851033	-0.00982844	-0.0395657	0.0541211	0.734592	-0.240087	-0.192831	-0.30402	-0.417962	-0.46613	0.0918301	0.511112	0.557545	-0.332017	-0.411223	-0.251183	0.0257118	-0.293536	-0.266514	-0.364914	-0.552364	0.0923756	-0.845766	-0.408905	-0.296763	-0.403387	-0.915208	-0.0402527	0.196947	-0.201589	0.222133	0.671843	0.0967517	-0.106102	0.14447	-0.144262	-0.53034	-0.00894787	-0.536348	-0.501093	-0.468785	0.0703281	-0.140279	-0.221152	0.432255	0.372605	-0.497283	-0.232705	-0.2902	-0.129195	0.151213	-0.133611	-0.00281786	0.0845683	-0.0349424	0.673462	0.220993	0.284772	-0.0423007	0.56952	-0.180781	-0.140688	-0.000215341	0.250008	-0.143146	0.386638	-0.0851913	-0.328748	-0.496673	-0.115101	-0.310389	0.00459304	-0.389097	0.203626	0.0851665	-0.00710372	0.303143	0.0761411	-0.24571	-0.108485	-0.484333	-0.0780735	0.075059	0.403236	0.0849352	0.0295752	0.0182303	0.138895	-0.117506	-0.172561	0.242843	0.376168	-0.409014	-0.177151	0.512769	0.0554369	-0.30337	0.223685	-0.126209	-0.0763632	-0.25929	-0.0488917	-0.397189	-0.124924	-0.103781	0.0470284	-0.364904	-0.50425	0.283577	0.880683	0.156406	-0.612016	-0.0701312	-0.590594	-0.512441	0.330821	-0.362914	0.651895	0.491418	0.0717005	0.138103	0.0737815	0.14333	-0.282404	-0.419065	0.21953	0.153125	-0.246288	0.0490145	-0.592171	-0.415539	-0.723111	0.171701	0.183012	-0.195774	-0.0582951	0.085873	0.391185	-0.289277	-0.0636567	-0.168656	-0.0491572	0.835804	-0.217939	0.364895	0.122481	0.156659	0.285319	0.530571	-0.0286742	-0.212425	-0.111805	0.0438704	0.0522888	-0.318964	0.2056	-0.288156	-0.447184	-0.104442	-0.268079	-0.23222	-0.00499179	-0.450554	-0.575006	-0.56317	0.0620339	0.0823067	-0.476763	-0.111965	0.484772	-0.341446	-0.228597	-0.0604666	0.345573	0.231519	-0.00936012	0.435759	0.342799	-0.24044	-0.178291	-0.117102	-0.401467	-0.125391	-0.43969	0.0243624	0.32944	0.172	-0.0387981	-0.0801445	-0.455618	-0.616826	0.327141	-0.232198	0.455528	-0.0907955	-0.165137	0.410432	-0.141108	0.154522	-0.246751	0.101674	-0.281486	-0.0463729	0.322779	0.406033	-0.0184179	-0.317774	0.0877865	-0.41348	-0.284581	-0.518609	-0.367639	0.441984	-0.436969	-0.447145	-0.370327	0.129759	-0.196577	-0.189787	-0.396171	-0.0507191	-0.271275	-0.0386698	0.454475	-0.449926	0.201909	0.345055	-0.215545	-0.433653	0.296747	-0.0940123	0.375637	-0.256615	0.399258	0.387234	0.464324	-0.0239449	-0.171865	0.547145	0.395111	0.594205	0.548843	0.0936861	-0.24038	0.340687	-0.0816318	0.303378	0.327642	-0.0173247	0.0811312	-0.0280646	0.125308	-0.413553	0.0224769	-0.352901	-0.0771661	-0.0841243	0.168844	0.168233	0.296594	0.423582	0.331172	-0.035603	-0.364104	-0.0969452	0.183825	-0.276238	-0.134512	0.396688	-0.061205	0.528522	-0.0300246	0.43793	-0.0382174	0.474509	-0.402198	0.323958	0.229442	0.310621	-0.0186316	-0.326685	0.249626	0.376339	0.493377	-0.0411542	-0.334356	-0.160217	0.213207	0.0644901	0.22633	0.202678	-0.438729	0.102547	-0.312566	-0.37342	0.268202	-0.13266	-0.482945	0.485941	-0.0144956	-0.417659	0.0257011	-0.141784	0.228558	-0.171277	-0.418844	-0.515727	-0.401741	-0.0210838	0.19807	0.370835	0.121011	0.275331	0.37139	0.369681	0.124586	-0.393923	0.436058	0.0832035	0.349294	-0.427646	0.407035	0.187668	0.102766	-0.246122	-0.391054	0.125716	0.307545	0.131545	0.353445	-0.30072	-0.152644	-0.314483	0.305927	-0.405856	0.118513	0.366079	-0.301757	0.367361	0.294038	0.335746	0.148485	0.0341323	-0.397674	0.131852	-0.388122	0.153246	0.52374	0.111649	-0.299344	0.0231762	-0.156975	0.352928	0.420161	0.34175	0.405634	0.373547	-0.441194	0.432307	-0.0656327	0.31417	0.256551	0.464779	0.391687	0.48312	0.511838	0.204438	-0.253288	0.475005	-0.264733	-0.303339	-0.147206	-0.0376751	0.303797	-0.442167	-0.411075	-0.3219	-0.474853	-0.0372156	-0.378637	0.339464	-0.404882	0.0812162	0.427812	0.415819	0.445708	-0.457884	-0.324732	-0.449034	-0.0289773	0.451933	-0.360775	0.128224	0.181549	-0.0913572	0.14919	0.412931	-0.477416	0.420042	-0.23925	0.0023957	-0.150555	-0.437975	-0.00809685	-0.0946887	-0.180504	-0.24949	0.201509	0.0938509	-0.276942	-0.509781	0.244887	-0.137962	0.31594	-0.276301	-0.202504	-0.359706	-0.0894345	0.368068	-0.385983	0.246828	0.0262917	-0.288018	-0.0904721	0.181234	0.339664	0.318099	0.131051	0.259689	0.0887365	0.262225	-0.727292	0.533377	0.205593	-0.178027	-0.45828	-0.49723	0.28192	-0.0500328	0.271051	-0.357217	0.297105	-0.416998	0.616501	0.610885	-0.206431	0.326563	0.0577969	0.060625	-0.231834	0.0802484	-0.300826	0.0376634	-0.159132	-0.4102	-0.407645	0.325524	-0.685843	-0.640248	0.271849	-0.332861	0.0835719	-0.426249	-0.484567	0.417842	-0.132329	-0.37013	-0.182568	0.131512	0.0552003	-0.176008	-0.324995	-0.176858	-0.195517	-0.274733	-0.149464	0.23281	0.0489364	-0.39168	-0.385218	0.111858	-0.0245407	-0.320662	0.630874	-0.391325	0.138795	-0.139535	0.027596	0.567472	-0.404444	0.0881927	-0.339102	-0.573484	-0.0513578	-0.297212	0.202416	0.489249	-0.198771	-0.0715712	0.671347	-0.325185	-0.356797	0.238639	-0.268883	-0.199057	0.464343	0.343128	-0.0408213	0.0883173	0.217513	-0.118015	-0.0213226	-0.160818	-0.216676	0.381263	-0.651581	0.19557	-0.226361	0.307943	-0.419346	-0.374766	0.291629	-0.267364	0.364247	0.241344	0.209782	-0.0633362	0.0725323	-0.473317	0.32577	-0.0713919	0.048615	-0.338591	-0.0515742	0.380405	0.21768	-0.062874	-0.0293767	0.123458	-0.0023522	0.116134	0.194355	0.265846	0.289861	0.341863	0.244911	-0.1024	-0.337182	-0.282512	-0.355568	-0.21062	0.514653	-0.398661	-0.330769	0.149435	-0.394457	-0.323054	-0.116162	0.324719	0.314457	0.343944	-0.0383585	0.0327804	0.0534399	0.662579	-0.163152	0.256808	0.189524	0.570804	-0.0241327	-0.011019	0.482121	-0.353072	0.087205	0.398893	0.213891	-0.134425	-0.59956	-0.427299	0.217605	-0.153139	0.0443564	0.0946022	0.0706351	-0.187307	-0.0890906	0.213561	0.274985	0.00949986	0.507	-0.380083	-0.1299	0.0310032	0.174589	0.0962437	0.267667	0.48171	0.440097	0.520643	0.039827	0.240947	-0.424447	-0.252014	0.117567	-0.346401	-0.242963	-0.0508486	-0.259148	0.408625	-0.258314	0.28927	0.0390179	0.00395215	-0.196472	0.0760166	0.178216	0.471671	0.188688	0.100688	0.134752	0.106347	-0.0399638	-0.107344	-0.34264	0.329415	0.194406	0.459073	0.752651	-0.546356	0.0933014	-0.336474	0.518383	-0.133194	0.25522	-0.490726	-0.277764	0.384863	0.282464	-0.243248	-0.13741	0.383644	-0.383114	0.174522	0.0773888	0.487411	0.51621	-0.0354161	-0.0919101	0.159211	-0.222786	0.629442	0.20527	0.30773	0.292044	-0.320378	0.123116	-0.106762	0.248395	-0.439929	-0.463481	0.0481296	-0.00936418	-0.19509	0.0417136	-0.105365	-0.220298	-0.19217	-0.54452	-0.188263	-0.134435	-0.248481	-0.0400351	-0.0744207	0.27259	0.093287	0.460449	0.202969	-0.00161847	-0.269356	-0.464749	-0.18523	0.131175	-0.450992	-0.627895	-0.262562	-0.466654	0.0505462	-0.0309099	-0.211829	-0.0565714	0.0943276	-0.109058	-0.225852	0.036991	0.149607	0.301667	0.0239659	-0.481832	0.209744	0.56346	-0.151263	-0.0942995	0.0126386	-0.647109	0.158263	-0.191144	-0.00666124	0.481728	0.266234	0.204063	-0.0139095	0.0359944	-0.216203	-0.138853	-0.241196	-0.301556	-0.194035	-0.201367	-0.162648	0.0169274	-0.219731	-0.2066	-0.010708	0.462022	-0.555623	0.636201	-0.247878	-0.492862	-0.36922	-0.46086	-0.191715	-0.0820976	0.68743	-0.32617	0.364869	-0.49404	0.0431198	0.336881	-0.0199053	-0.106793	0.0223799	0.152461	0.573537	-0.0255747	0.152526	-0.420133	-0.165482	0.402893	0.336791	-0.0536717	-0.410029	-0.00773284	0.364958	0.61898	-0.530376	-0.47631	0.516745	0.833317	0.260413	0.197982	0.650106	0.388765	-0.093122	-0.391218	-0.538428	0.200438	0.257963	-0.0781587	-0.285706	0.262884	0.0809349	0.323643	0.0717948	0.411959	-0.19527	0.451093	-0.280928	0.249206	-0.423564	-0.157288	-0.494043	0.0450026	0.671464	-0.125796	-0.284894	0.328314	0.374109	0.60063	0.125009	0.0880454	0.432435	-0.656665	0.0397008	0.305447	-0.304125	-0.184005	0.433432	-0.305506	0.319249	-0.104236	-0.241691	-0.0390902	-0.0796434	-0.339433	0.414084	-0.0236077	0.0345082	-0.0504598	-0.428679	0.102461	0.286773	0.647033	0.241583	0.413604	-0.424517	0.182344	0.0650805	0.0761148	0.0237661	-0.238185	0.0683519	-0.361911	0.508011	0.482163	-0.23516	-0.281752	0.107318	-0.318445	-0.443162	-0.455024	-0.0299673	-0.284908	-0.16082	0.113934	-0.0281013	-0.136927	-0.409154	-0.189628	-0.0219052	-0.0438222	-0.307134	0.369388	-0.527108	-0.430438	-0.107918	-0.217178	-0.234452	-0.303168	-0.158772	0.137796	-0.222335	0.0503708	0.320439	-0.100421	-0.0256205	-0.106028	-0.417395	-0.21105	-0.0928381	0.252551	-0.553447	-0.665632	-0.545041	-0.507662	-0.0602485	-0.125185	-0.471788	-0.507615	-0.240197	-0.263407	-0.0592193	0.513689	0.132506	-0.244973	0.188784	0.360849	0.0886157	0.482855	-0.230531	-0.279677	-0.486084	-0.0473189	0.183095	-0.51101	-0.539682	-0.179183	0.252566	0.0568058	-0.572309	-0.279994	-0.579282	0.0724663	-0.477501	-0.304072	0.00305652	-0.537772	0.607129	0.504497	-0.163709	0.0977839	-0.0208952	0.23063	-0.129507	-0.387276	-0.420514	-0.430967	-0.0999837	-0.024369	-0.253262	0.341361	-0.221968	-0.437137	0.534064	-0.426787	-0.148489	-0.458043	0.0645886	0.323977	-0.130485	-0.0494857	-0.152067	0.0349931	-0.0866913	0.2423	-0.174423	0.342624	-0.318588	0.272028	-0.19085	-0.286036	-0.0652646	-0.206565	-0.139729	0.000879916	-0.39462	-0.00868252	-0.0999939	-0.410916	-0.0636684	0.171563	0.461872	-0.263793	-0.479318	0.0249159	-0.466311	-0.448933	0.416015	0.458996	0.23088	0.26423	0.26549	0.611365	-0.202654	0.487796	-0.144604	-0.509789	-0.136047	-0.431516	-0.291009	-0.14391	0.0988138	-0.383755	-0.1386	-0.369198	-0.274438	0.0590706	-0.141896	0.0436723	0.40277	0.00762299	0.326765	0.36621	-0.0341826	-0.278356	-0.22826	0.333048	0.0298364	0.00740767	0.36631	-0.0524721	0.013541	-0.291154	-0.402738	-0.0875118	-0.280633	-0.437742	0.179861	-0.426746	0.0673391	-0.249351	0.13863	0.546055	0.16613	-0.253744	0.418518	0.3829	-0.398034	0.16988	-0.0933615	-0.411349	-0.0346922	0.19387	0.210281	-0.051672	0.318856	0.524088	-0.168561	-0.436605	-0.20397	-0.169393	0.0479904	0.449522	-0.467406	-0.425779	-0.414606	0.353321	-0.251251	-0.0400626	0.258255	-0.305757	-0.486061	-0.190061	-0.257813	-0.271698	0.190382	-0.25206	0.290072	0.176268	-0.407349	-0.017965	-0.226989	-0.216796	0.275071	-0.306145	0.178702	-0.379215	0.362934	0.228622	0.0345552	-0.129757	-0.284394	0.089276	0.219711	-0.427464	-0.391758	0.309771	0.00534953	0.340168	0.105633	-0.104518	-0.42075	-0.0681696	-0.529579	0.141156	-0.457495	-0.220824	0.203323	-0.341189	0.217575	-0.0611504	-0.437444	-0.111171	0.137586	-0.250732	0.218765	0.261338	0.186202	-0.463507	-0.29977	-0.207168	-0.585842	0.270111	0.342776	0.302491	0.093012	-0.395437	0.244109	-0.168379	-0.035715	0.139919	-0.38564	-0.479515	0.31299	0.41194	0.218291	-0.471046	-0.177046	0.39426	-0.573207	0.157711	-0.224533	0.101618	0.252502	-0.0904652	-0.383412	-0.025782	-0.200186	-0.407712	-0.482116	-0.447783	0.355098	-0.289178	0.404904	0.376339	-0.181404	-0.363569	0.376095	-0.230554	0.241431	0.18451	-0.304122	0.504557	0.456619	-0.28135	0.232444	0.204794	-0.108203	-0.0308695	-0.0301675	-0.174093	-0.48529	-0.317621	-0.0964324	-0.171529	0.470733	0.24572	0.0104526	0.362606	0.12038	-0.355861	0.487077	0.0910234	0.584549	0.279526	0.158732	0.289029	0.339416	0.546111	0.41824	0.057239	-0.0438245	0.483417	0.34935	0.479161	-0.00652256	-0.092761	-0.463866	0.225333	0.300867	-0.524363	0.294946	-0.372768	0.296472	0.233085	0.286815	0.171656	-0.237854	0.544005	0.32321	0.513392	0.212226	-0.508476	0.646136	-0.0550862	0.348652	0.00199595	0.538566	0.481371	0.166044	0.497137	-0.310135	-0.384539	0.159124	0.439406	0.544908	-0.12038	0.15913	-0.406674	0.362026	-0.326563	0.573753	-0.00599016	-0.297745	0.3257	0.131616	0.110309	0.514019	0.608649	0.42306	0.0804869	-0.0304374	0.230304	-0.321956	-0.106641	0.160327	0.100781	0.157207	-0.243817	-0.124691	0.181573	0.0841705	-0.0155029	-0.400204	-0.100277	0.113636	-0.262719	-0.248497	0.191508	-0.323726	0.017498	0.132827	-0.446091	0.292431	-0.262248	-0.561685	-0.0506759	-0.0720619	0.237087	0.126273	-0.204187	0.216701	0.61232	-0.343823	-0.230118	-0.517195	-0.394589	-0.0285731	-0.358066	0.414106	0.338221	0.277267	0.419767	0.221976	0.430479	0.167856	0.430388	0.234443	-0.561024	-0.402469	-0.616511	-1.08546	0.135237	-0.0561011	0.531263	0.299778	0.0887989	0.170528	0.271479	-0.711162	-0.124537	0.189376	-0.194665	-0.389952	-0.590258	0.104791	0.0375223	-0.307673	-0.17929	0.429319	0.272312	0.268464	-0.0294483	-0.0539986	0.14401	-0.814704	0.147024	-0.432119	-0.26015	0.00173938	-0.475742	0.0843689	-0.462901	-0.413331	0.0711687	0.311105	0.169525	-0.287337	-0.374102	-0.0892609	-0.00125027	-0.134076	-0.310423	0.0233897	-0.393645	0.282119	0.134358	0.182892	0.146838	0.422322	-0.358088	-0.193508	-0.147897	-0.218276	-0.862989	-0.0350849	-0.421163	-0.142204	-0.0378699	-0.733948	-0.0588282	-0.721046	-0.10479	0.211523	-0.144581	-0.280628	-0.149163	-0.14693	0.15198	-0.0112681	-0.173112	0.476895	-0.280489	0.13332	0.129749	-0.436737	-0.273951	0.269462	-0.0863986	0.0131785	0.805238	-0.550074	0.158068	-0.132972	0.147915	0.0264269	0.203918	-0.300498	-0.33375	-0.319545	-0.286235	-0.568596	-0.0402713	0.418319	0.284003	-0.107228	-0.019007	-0.0825109	0.143663	-0.215027	-0.476806	0.350337	-0.22573	-0.241237	-0.332112	0.0957029	0.172793	0.428043	0.278218	0.20271	-0.429276	-0.102511	-0.478366	0.197544	0.150829	-0.402505	-0.0848186	-0.0511761	0.555742	-0.277906	0.427217	-0.545725	-0.214821	-0.13361	0.232434	0.138844	-0.184722	0.164724	0.00434889	0.248894	-0.0104526	0.675681	-0.113344	-0.529532	0.649463	-0.204472	-0.125143	-0.678929	0.802664	0.335448	0.231732	-0.25304	0.192952	-0.484407	-0.0641199	0.455866	-0.178189	-0.0591616	-0.523683	-0.0435775	-0.0968017	0.171495	-0.262322	-0.111569	0.490905	0.424497	0.228526	-0.130519	0.218161	-0.161541	-0.450938	0.195049	-0.262395	-0.494146	-0.451905	0.59281	1.31253	1.02305	0.779915	0.524975	-0.215148	0.0574623	0.86579	0.277703	0.163312	0.0523974	0.37231	0.287244	0.0140988	-0.102203	0.366167	-0.28695	-0.248405	-0.120573	-0.345198	0.144076	0.530332	0.429903	0.142739	-0.241883	-0.677684	0.15455	0.816792	0.998692	0.89293	-0.00367306	-0.432706	-0.289302	-0.286227	0.0264187	0.080104	-0.286499	-0.74715	0.00374559	-0.291806	0.235288	-0.362207	-0.169585	0.405637	0.116397	-0.182343	0.102127	-0.071205	-0.00594094	-0.237104	-0.30847	-0.283555	0.0758975	-0.195169	0.828232	0.649395	-0.0920141	0.148532	0.246626	-0.145047	-0.592043	0.0746623	-0.40809	-0.207985	-0.307676	-0.326563	-0.50292	0.368867	0.200966	-0.24109	0.0864132	-0.275369	0.345195	-0.472091	-0.245303	0.250217	0.193673	0.0758387	0.0567007	-0.116546	0.469077	0.525659	0.295524	0.119148	0.54299	0.520821	0.0759597	-0.574199	-0.216023	-0.253489	-0.407702	-0.0306485	-0.224249	-0.467866	0.377429	0.213479	-0.364171	-0.422147	-0.213843	0.34428	0.0971874	-0.475935	0.137385	-0.192294	0.115131	-0.516591	0.668446	0.247417	0.257412	0.522577	0.252164	-0.0921637	-0.0857661	-0.233794	-0.375386	0.0661371	0.163763	0.025316	0.109628	-0.461232	-0.52782	-0.323123	-0.212851	0.0831996	-0.0932798	-0.412778	-0.267271	-0.204048	-0.218072	-0.263879	0.511021	0.437193	0.460763	0.220923	-0.0975751	0.386426	0.047871	0.257953	0.064209	0.479049	-0.0401519	0.056186	-0.104606	0.358479	-0.0364442	0.301032	-0.0295689	0.253693	-0.413612	-0.323603	0.0527726	-0.208243	-0.0657216	0.0987052	0.240809	0.454211	0.0148942	-0.0700415	0.476043	-0.117521	0.640458	0.553382	-0.223122	0.277191	0.185166	-0.474134	-0.362571	-0.491785	0.0029053	0.222835	-0.182134	-0.0587677	-0.208107	0.207996	-0.0630976	-0.376445	-0.0282144	-0.439826	0.272881	0.485804	0.464372	0.230759	0.213796	0.329374	0.183753	-0.163506	-0.175146	-0.559462	-0.729706	-0.0348408	-0.618132	0.673225	-0.102589	0.174056	0.314986	0.0121676	-0.780035	-0.370762	-0.257876	-0.260142	-0.0596282	-0.51024	-0.669449	-0.285327	-0.455635	0.325037	0.152913	0.454614	-0.140946	-0.489065	0.134271	0.390516	-0.700044	-0.868402	0.288753	-0.55598	0.384972	0.185136	-0.00575084	0.51445	0.994489	0.0516034	-0.4367	0.0517868	-0.0974722	-0.268882	0.339371	0.267627	-0.182382	0.0155334	-0.110767	0.291428	0.244621	0.243042	-0.166089	-0.189663	-0.0812529	-0.00326622	0.0572121	-0.0896431	0.156249	0.0587803	-0.187716	-0.227798	-0.0683745	0.420553	0.443775	-0.159072	-0.551079	0.423489	0.172625	-0.230051	-0.545905	-0.190256	-0.134496	-0.19068	0.316828	-0.0281533	-0.288394	0.0838191	-0.460662	-0.0832087	0.223716	0.465722	0.289122	-0.414126	-0.376085	-0.312008	-0.177606	0.193871	-0.0900477	-0.097524	-0.152454	0.171001	0.189897	-0.180743	0.329629	0.20452	-0.383937	0.489426	-0.315288	0.0834782	-0.270501	0.389737	0.00978118	0.435902	0.0732292	-0.444304	0.000350963	-0.184072	-0.0713918	0.269005	0.566925	-0.0313624	-0.158427	-0.207433	0.266427	0.533117	-0.316113	-0.18367	0.415966	-0.180711	0.49508	-0.180592	-0.309814	0.061562	0.392848	0.454527	0.313013	0.368099	0.263848	0.0357219	-0.14105	0.463744	0.417081	-0.219169	0.475531	0.0277323	-0.422049	0.0581898	0.485321	0.580031	0.253091	0.149159	-0.281206	-0.51053	-0.339367	0.0170063	0.156054	-0.140344	-0.15187	-0.228991	0.521551	-0.303491	-0.17513	0.334742	0.209799	-0.397427	0.174459	0.33867	-0.238761	0.268426	0.0797601	-0.2734	-0.195212	0.230583	0.323237	0.382016	0.355068	0.00856034	-0.248459	0.438245	-0.022519	0.590552	-0.0589153	-0.360256	-0.281701	-0.189749	-0.146163	-0.0267448	0.516511	-0.0426497	-0.24749	-0.320765	0.465941	0.394925	0.262579	0.434157	-0.401989	0.198737	0.11121	-0.245093	-0.394481	0.432692	0.141942	-0.0410156	-0.377879	-0.0563969	-0.41502	-0.272255	-0.0540775	0.310557	-0.216223	0.289286	-0.382213	-0.264595	-0.341593	-0.194433	-0.11539	-0.221045	0.122838	0.246285	0.203132	0.587628	0.395352	-0.320764	0.0906553	-0.0057222	-0.412015	0.238274	0.457671	0.395963	-0.0291604	0.03914	0.0680716	-0.0585192	-0.0442365	-0.0360881	0.451166	0.187399	0.193905	-0.415799	-0.288262	0.349453	0.18746	0.484131	0.470336	0.4588	0.424955	-0.0869319	0.334721	0.487945	-0.351894	0.174917	0.0525071	0.105945	0.206809	-0.338893	-0.0940733	0.122274	-0.0169821	-0.0706961	0.207129	-0.0779083	-0.429629	-0.231167	0.25777	0.10656	0.132745	0.455718	-0.380734	0.279717	-0.241478	-0.299127	-0.0403912	-0.240471	-0.369137	-0.205243	0.413114	0.0100253	0.0173803	0.219535	-0.415464	0.142872	0.304285	0.380419	0.249987	0.161509	0.322259	-0.150457	0.45689	0.165207	0.392063	-0.185654	0.284215	-0.0805794	-0.1319	0.0810582	-0.294068	0.236653	0.148122	0.378567	-0.270959	0.0183569	0.318851	-0.4429	-0.398465	0.154958	-0.378292	-0.261934	0.27235	-0.0300426	-0.469727	-0.223356	0.305551	-0.169612	-0.125364	-0.142546	-0.36489	-0.155188	-0.542115	-0.482261	-0.211518	-0.291056	-0.477549	0.201462	-0.155273	-0.484534	0.0375155	-0.297059	-0.228996	0.439521	0.0948057	-0.317438	0.150472	0.430953	-0.371388	-0.0452191	-0.233954	-0.150834	0.103274	-0.602171	-0.0820302	0.0965741	0.435442	-0.294476	-0.0765153	-0.32095	-0.23721	-0.140674	-0.366988	0.246684	0.350808	0.14122	-0.42498	-0.207243	-0.310334	0.493255	0.405615	-0.242576	-0.366756	0.117908	-0.335428	0.250129	-0.378872	0.123255	-0.0534637	-0.242594	0.262495	-0.00245762	-0.24037	0.304804	0.518275	-0.307108	-0.13959	0.384718	-0.0459586	-0.0515039	0.164548	0.288022	-0.00380247	-0.527071	-0.219327	-0.0501306	-0.479885	0.242066	-0.15511	-0.0301981	-0.356014	-0.0241157	-0.387381	0.170814	-0.403821	-0.305118	0.114035	-0.300143	0.44891	0.248741	0.207662	0.38808	-0.156328	-0.0415016	0.0455712	-0.277374	-0.334851	-0.258372	-0.505284	0.219313	0.135323	-0.278728	0.295804	0.329099	-0.155101	-0.00343333	-0.0148584	-0.378644	0.112786	-0.0314536	0.475494	0.157227	0.148151	0.170777	0.112012	0.508366	-0.513104	0.468465	0.459848	-0.148272	0.284546	-0.211908	-0.216954	-0.234028	0.0659711	0.0451455	-0.141285	-0.393966	-0.305291	-0.298411	0.112609	-0.379809	-0.433073	0.376725	0.259593	-0.138327	-0.104892	-0.320616	0.204566	0.12049	0.143613	-0.0724189	0.378008	0.243044	0.30997	0.447817	-0.0602313	-0.0728659	0.221209	0.14426	-0.563258	-0.0535014	0.100676	0.01573	-0.383461	0.207505	-0.18371	-0.0168206	0.287295	0.212729	-0.386929	0.200059	0.184219	0.134963	0.000741026	0.191008	0.499979	0.0568534	-0.465145	-0.376326	-0.286141	-0.0382813	0.173143	-0.263841	-0.586047	0.142747	-0.203211	0.10593	-0.344299	0.212121	0.501406	0.364969	0.279379	0.401092	0.230074	0.46241	0.323298	-0.276177	-0.007828	-0.353596	-0.252626	-0.308701	-0.0808706	0.255038	0.421076	0.618606	0.0412332	0.586139	0.121149	-0.298252	-0.737926	-0.0741864	-0.0134223	-0.767352	-0.00477317	0.413788	-0.059404	-0.447287	-0.17075	0.300112	0.0650643	0.00648518	-0.341814	0.404996	0.12804	0.361171	-0.290212	-0.245647	-0.155776	0.0636146	0.0385873	-0.0379152	-0.181746	0.104488	0.456553	0.424843	-0.246426	0.0225335	-0.525375	-0.379957	0.0160004	0.0308437	-0.644027	0.362765	0.235227	0.402872	-0.278057	-0.271465	0.218894	0.202575	0.122425	-0.260826	0.341637	-0.0535039	0.50751	-0.0512291	0.338986	-0.378334	0.08722	0.000900604	-0.0341311	-0.0689936	0.35473	-0.0429399	0.284636	0.521599	-0.555331	-0.589167	0.501042	-0.21363	0.183536	0.234013	0.0351508	-0.0472551	0.116606	-0.446442	0.415259	-0.330317	0.27224	0.527883	-0.375341	0.369443	-0.054973	0.796637	0.107441	-0.243805	0.251834	0.313522	0.0549288	0.207861	0.0106842	0.256938	-0.0586654	0.554155	0.344166	0.442709	-0.378557	0.147286	-0.204527	-0.337489	0.44238	-0.403056	0.0804124	0.321872	0.206534	-0.172203	0.0559454	-0.0699403	0.340855	-0.318082	-0.173804	0.561378	0.143472	0.447604	0.620728	-0.00748055	0.171204	-0.0190373	-0.122619	-0.278279	0.184738	-0.337425	-0.00877283	-0.140415	0.237164	-0.00686478	-0.342307	-0.310709	0.225479	0.452719	0.114774	0.215781	-0.277248	-0.204683	-0.0141392	0.534349	0.271818	-0.488535	-0.428865	0.498487	-0.101239	0.777028	0.551349	-0.246214	0.0463347	-0.654502	0.0770537	-0.39585	0.329171	0.143036	-0.19814	-0.225247	-0.35971	0.313955	0.0433843	0.0773768	0.155529	0.389684	0.253075	0.488278	-0.0233109	0.135383	-0.139242	-0.249474	-0.010701	-0.00460246	-0.135595	0.50199	0.144604	-0.0571978	-0.0482132	-0.648775	0.215528	-0.535726	0.1396	-0.297946	0.53192	0.166111	0.339511	-0.147472	0.424757	-0.366633	0.333705	-0.355708	0.269289	0.163289	-0.416593	0.294997	-0.426186	0.567339	0.124182	0.0133857	0.186965	-0.630396	-0.3728	-0.241871	0.0644122	0.129156	0.0625618	0.298988	-0.192872	-0.307574	-0.239037	0.0319277	0.592826	0.259762	0.320749	-0.35927	0.180807	-0.133027	0.0592822	-0.336259	0.17925	0.0843074	0.201637	-0.176408	-0.511066	-0.471936	0.511395	-0.367224	-0.389435	-0.156521	0.0723741	-0.317993	-0.150183	-0.203836	0.2173	0.167247	-0.563938	0.0761209	0.068922	-0.22518	-0.248673	0.520172	0.32278	0.201061	-0.209017	-0.498016	0.14456	-0.0703299	-0.063774	0.234021	-0.267753	0.0272226	0.0842489	-0.134283	0.802993	0.458861	0.250135	-0.150575	0.331844	-0.0940251	-0.0443985	0.479119	0.122289	-0.00560927	0.760343	0.849081	0.215303	0.0520587	0.162857	0.267426	0.117888	0.321801	0.112302	0.225281	0.374081	0.239494	0.42205	-0.189493	0.44209	0.0600599	0.679096	0.285812	0.737887	0.488846	-0.249297	-0.386626	0.484649	0.0226931	0.157931	-0.2456	0.035215	-0.175878	0.0527477	-0.228949	0.1034	-0.185741	-0.217892	-0.474658	0.47295	0.227439	0.04449	0.308771	-0.444277	0.248341	0.151334	0.190306	-0.327915	0.342814	0.564519	0.0665455	-0.113527	0.152391	-0.227495	-0.105396	0.074416	-0.506871	0.205174	0.268208	0.00191033	-0.161647	0.300494	0.118745	0.527895	0.0126769	0.203143	0.336299	0.276666	-0.249251	-0.199606	0.275414	0.359249	-0.479736	0.465217	-0.300301	-0.184026	0.154237	-0.240637	0.144814	-0.418504	0.0503788	-0.0395842	-0.153906	-0.0988049	0.389985	0.150635	0.429407	0.45071	0.115795	0.109774	-0.0472113	0.0658292	-0.128773	-0.0108493	-0.470336	0.392309	0.0669118	0.223289	-0.189047	0.166158	0.342044	0.496582	-0.396418	0.405284	-0.00799441	-0.0100659	-0.162751	-0.524317	-0.361833	-0.0158855	-0.0859518	0.224035	0.812618	-0.413427	0.394982	0.334015	0.415519	-0.474853	-0.199606	-0.352779	0.184439	-0.445799	0.447151	0.138905	-0.0667592	0.497681	0.335604	0.264527	-0.489159	0.0587093	-0.0659658	0.382932	-0.0994422	0.0332479	0.103124	-0.270655	0.147105	-0.307975	-0.152354	-0.342517	-0.255211	0.475799	-0.321131	0.240165	0.467498	0.281304	0.162557	-0.379482	0.231773	0.0659909	0.0545677	-0.311746	-0.28495	-0.24723	0.079776	-0.105013	0.210579	0.0304886	-0.38026	0.157629	-0.253738	0.326529	-0.309626	0.0255944	-0.436812	-0.116702	0.0766326	-0.286263	0.402601	0.281564	0.0721158	0.127996	0.0456563	-0.569108	0.178229	-0.22663	0.385879	-0.372114	0.240118	0.237127	0.473157	0.399913	0.26734	-0.435013	-0.0576509	-0.411513	0.0474548	-0.217293	-0.171912	-0.32365	0.464856	-0.260569	-0.42485	-0.149207	-0.10819	0.0162038	-0.152594	0.400218	0.123598	-0.254831	0.194096	0.339364	-0.371809	0.416023	-0.44174	-0.444273	0.278161	-0.299616	-0.0364238	0.18926	0.151661	-0.209037	0.459135	-0.300287	-0.267663	0.402127	0.497833	0.172384	-0.146223	-0.210044	-0.188903	0.31579	0.272942	-0.0381633	0.23104	-0.135609	-0.204703	-0.451689	0.0363018	-0.321742	-0.21922	-0.0800348	-0.234092	0.290338	-0.331538	-0.234642	0.0242164	0.368221	0.16747	0.313175	-0.324357	0.407559	-0.362914	-0.0225805	-0.0478927	-0.52212	-0.183761	0.335313	0.399067	-0.107288	0.0613269	0.432096	0.152425	-0.39346	-0.439787	-0.234123	0.403531	-0.218213	0.457976	-0.0214698	0.323756	-0.398068	0.221763	0.311151	-0.239647	0.0438987	0.378425	-0.517157	0.376489	0.236507	0.322883	-0.326054	-0.205321	-0.207249	0.0534596	-0.0422117	-0.364336	0.0381114	-0.0844227	0.191169	-0.226615	0.0576342	0.0520493	0.394101	0.210664	-0.373623	-0.362178	-0.237571	-0.195975	0.231954	0.16967	-0.00877521	0.301116	0.0183398	-0.28976	0.613989	-0.268791	0.523101	-0.499979	-0.230566	0.41832	-0.0020171	0.189784	0.22461	-0.292374	0.386127	0.473913	-0.29104	0.242607	-0.39169	-0.0439619	0.345037	-0.422483	-0.222953	-0.298425	0.395893	0.119972	-0.124645	0.550383	-0.0818847	-0.344564	0.615769	0.4017	0.329995	-0.206674	0.415335	-0.161562	-0.0940874	0.21291	-0.222513	0.17432	0.0935465	0.426243	-0.0841044	-0.0977789	-0.527894	-0.459838	-0.286187	-0.331772	-0.450682	0.344325	0.130055	-0.516305	-0.042245	-0.0769086	0.118565	0.0446982	0.517412	0.625127	-0.0436195	-0.0492911	-0.0342648	0.214413	0.319074	0.343171	0.270964	-0.310554	0.215482	0.67903	-0.113621	-0.521584	-0.415597	0.373836	-0.518196	0.0712999	0.216707	-0.0345927	-0.396237	0.253166	-0.397469	-0.395816	-0.271178	-0.0570392	-0.223983	0.229007	-0.376944	-0.306212	-0.200104	-0.208725	0.448191	-0.301159	-0.038238	0.192019	0.482142	0.34564	-0.0607589	0.370922	0.247451	0.414533	-0.0289748	-0.448552	0.216507	-0.427692	-0.388821	-0.311389	0.1512	0.441962	-0.200143	0.449345	-0.226901	0.295601	-0.0318637	-0.227836	0.11688	0.0953459	-0.11368	0.0519792	-0.260817	0.53939	0.4785	0.619166	0.0524202	0.0513695	0.396151	-0.0842494	0.377069	0.472593	0.140348	0.475631	0.178101	0.18395	-0.0898552	-0.116304	0.26461	0.136078	-0.350445	0.0374128	-0.589222	-0.268062	-0.00525258	-0.475893	0.106017	0.208809	0.618826	-0.0727278	-0.204176	-0.317781	0.558347	-0.370181	0.380207	0.57175	0.017303	0.536275	0.11797	0.520166	-0.236062	0.33582	-0.0871151	0.278069	-0.108764	-0.331091	-0.0483136	0.0934284	0.141878	-0.333333	-0.521575	-0.994462	-0.673022	-0.486091	-0.12165	-0.0213806	0.269348	-0.652012	-0.69526	-0.0852612	0.309159	0.00746113	0.122979	0.378734	0.0550628	0.333485	0.00485041	-0.266123	-0.022101	0.477721	0.169332	-0.221641	-0.145255	-0.0900243	-0.0268555	0.0810085	0.25032	0.142035	0.275962	-0.210141	-0.334334	-0.00203625	-0.155263	-0.175542	-0.29343	0.174757	-0.144371	0.636528	-0.0375155	0.114711	0.705676	0.300655	-0.29243	0.116756	0.291559	-0.130838	-0.108936	0.244438	0.37759	-0.228998	0.0292682	0.274253	0.434883	-0.497011	-0.126899	0.53267	0.00574385	-0.0637262	-0.502035	-0.0724284	0.278364	0.268325	-0.0620216	0.295766	-0.168448	0.479486	0.191955	0.332844	-0.504502	-0.208552	-0.325168	0.072985	-0.349992	-0.0900143	0.392666	-0.025013	-0.375176	0.448832	0.105749	0.255229	0.186689	0.448717	0.584653	0.0419018	0.217302	-0.440948	0.0198568	-0.0458231	-0.308703	-0.146864	-0.00410305	0.557798	-0.0370031	-0.183901	0.166547	0.31328	0.283377	0.0736973	-0.0364042	-0.410846	0.491546	-0.069628	-0.420147	0.483897	0.1692	-0.100613	0.346294	0.145512	0.368151	0.278921	-0.394348	0.285906	0.149236	-0.629568	0.116106	-0.676189	0.435966	0.555347	-0.0611547	0.619876	-0.737933	-0.221452	-0.110915	-0.193486	0.211547	0.237105	-0.235883	0.357295	-0.287249	-0.058289	0.167362	0.0302318	-0.416315	0.368711	-0.204528	-0.738611	-0.428442	-0.0150755	-0.207602	0.525292	0.152417	-0.762687	0.029737	0.44861	-0.311661	0.339822	-0.0453227	-0.339345	-0.0764398	-0.307263	-0.475297	-0.0518948	0.0468452	0.257113	0.13448	0.150204	0.184039	0.445013	-0.0521451	-0.372726	-0.471286	-0.386731	-0.589669	-0.744448	-0.414394	-0.674313	-0.572946	-0.0840778	-0.249884	-0.609124	-0.783307	0.660983	0.203901	0.389654	-0.410864	-0.295003	0.389746	0.388771	0.341636	-0.449508	0.28049	0.0967284	-0.239335	-0.421693	-0.104001	-0.0403757	-0.280172	-0.118032	-0.317656	-0.132086	-0.378644	-1.15091	-0.614085	-0.421687	-0.189819	-0.301309	-0.513462	0.109113	0.0342894	0.478457	0.0881607	0.300163	-0.39148	0.0301489	-0.0196569	-0.377295	-0.200461	0.23987	0.443754	-0.453948	-0.280282	0.56218	0.41591	0.30314	0.336386	-0.206824	-0.246194	-0.394773	-0.66842	-0.204118	-0.511564	-0.744901	-0.0875246	-0.144015	0.420253	0.355652	-0.346046	0.224337	-0.275008	0.304811	-0.138197	-0.370672	0.411746	0.0361492	0.144012	0.333155	0.240898	-0.460761	-0.00874505	-0.101767	-0.388372	0.102844	0.19525	0.179018	-0.104072	0.239717	-0.575663	-0.934564	0.070101	0.067953	0.0723847	0.568392	0.119238	0.603793	-0.148945	-0.355456	-0.389185	-0.441335	0.306471	-0.214583	0.48941	-0.27513	-0.10567	-0.252893	0.428566	-0.275641	0.377907	0.154093	-0.134047	0.18581	-0.322784	-0.055242	0.791619	0.250931	0.333323	0.477385	-0.3688	0.082358	0.230967	-0.390195	0.50614	-0.358024	0.104574	-0.531539	0.0715652	0.0864788	0.233772	-0.478545	-0.426288	-0.454772	0.248558	0.132922	0.44277	-0.370449	0.519052	0.441613	0.466564	0.00491416	-0.0677476	-0.309504	0.00676065	0.308003	0.153863	0.115419	-0.283881	0.264333	-0.0195111	-0.249674	0.216846	0.375514	-0.450849	0.0486921	-0.515145	-0.123875	-0.446104	0.158081	0.322779	0.474854	-0.152882	-0.352209	-0.0878341	0.14452	0.0167289	-0.115835	0.242693	0.297594	0.648123	0.174251	-0.174063	-0.239906	0.136897	0.144629	0.0474963	0.340487	-0.270248	-0.475375	0.259272	-0.5185	-0.14955	-0.41738	-0.250633	0.0896786	-0.188549	0.110309	-0.220176	-0.302667	-0.00984222	0.011663	-0.357121	-0.282201	0.411596	0.451037	0.661511	0.332186	0.358391	0.32108	0.0200131	0.298203	0.45892	0.261321	0.104906	0.37204	-0.0960484	0.360007	0.292413	-0.171339	-0.102313	-0.14568	0.0648061	-0.168895	0.271538	-0.0296793	-0.39993	-0.130146	0.0409546	0.472381	-0.43182	0.210606	0.125562	-0.441078	0.185213	0.280658	-0.339274	-0.32844	-0.263938	-0.200553	0.094136	-0.163118	-0.464036	-0.106556	-0.436624	-0.425626	0.211844	0.295984	0.409116	0.408109	-0.490743	0.41995	-0.445189	-0.478484	0.257942	0.115908	0.0962541	-0.0881387	0.466796	-0.370064	0.42903	0.395025	-0.537029	-0.128538	-0.25534	0.510954	-0.179471	-0.0581135	-0.197081	0.171735	0.526208	-0.109119	-0.0112766	0.415891	-0.192068	-0.395169	-0.186148	0.218542	-0.00831173	-0.320974	0.371216	0.404787	0.35614	-0.301106	-0.479121	-0.318715	0.289122	-0.206194	-0.0139338	-0.558153	-0.144972	0.264699	-0.141965	0.134271	-0.495174	-0.120132	0.24648	-0.0927334	0.145288	-0.0527162	0.18603	-0.318288	-0.379203	-0.160965	-0.38304	-0.361249	0.0091546	-0.502336	-0.560535	0.272407	-0.342388	-0.226784	0.3426	0.195958	-0.478623	-0.320873	-0.0679046	0.109377	-0.0751985	-0.530596	0.264747	-0.114171	-0.381971	0.284706	0.245246	0.331094	0.123874	0.236853	-0.00235088	0.194707	0.328622	-0.00419834	-0.441241	-0.285017	-0.0263118	-0.233044	-0.0753245	-0.397783	0.327947	-0.255597	-0.391679	0.494365	0.449289	0.106383	-0.0131888	0.0379602	-0.206616	0.173615	-0.448479	-0.371537	-0.0260982	0.0834938	0.406471	-0.285749	-0.235241	-0.22105	0.477183	-0.0531376	0.077062	-0.408811	-0.233116	-0.184774	0.295129	0.427549	0.473632	0.0261696	-0.266961	-0.329582	0.392577	0.0238502	0.383426	0.285488	0.412564	0.384059	-0.102619	-0.401765	0.234424	-0.125904	-0.474975	-0.0677969	0.134053	0.248283	0.277154	-0.0164342	0.262017	0.512501	0.0435957	0.456603	0.137043	0.0616016	-0.282067	-0.0240944	0.469604	-0.175158	-0.469143	-0.120467	-0.00402443	0.424461	-0.162731	0.0985816	0.0866572	0.389215	0.339498	0.178556	-0.0760352	-0.315697	-0.136497	-0.0618508	-0.392819	0.434111	0.104846	-0.258629	0.186014	0.264977	-0.163259	0.0537584	0.0699637	0.11196	-0.178444	-0.0289413	-0.444102	0.0430068	-0.00491733	-0.155311	0.266085	-0.142528	0.0213953	-0.444113	0.47181	0.538567	0.149408	-0.432936	-0.303743	0.545616	-0.310815	-0.145829	0.00954053	0.307951	-0.279962	0.296124	0.0859249	-0.448729	-0.0162206	-0.284422	0.14336	-0.559857	-0.0168048	0.10294	-0.306146	0.272509	0.352395	-0.137209	-0.0530173	0.0529238	0.455075	-0.425733	-0.668536	-0.755821	-0.311118	0.177815	-0.353788	0.480565	0.355048	0.301145	0.483585	0.095233	-0.195224	0.136158	-0.26513	-0.258538	0.0843338	-0.0500134	-0.356922	0.299059	-0.154836	-0.662798	-0.578607	-0.0120358	0.262089	-0.16191	0.466905	-0.130783	0.31443	0.160601	-0.0520507	-0.20172	-0.549243	-0.282031	0.343778	0.501893	0.323066	-0.468811	-0.263272	0.510242	-0.318567	-0.0395672	0.441893	0.412121	-0.0175447	-0.422546	-0.0717698	-0.23636	0.0559102	-0.35916	-0.45979	0.180987	0.172539	0.0170918	0.245127	-0.398311	-0.173738	-0.761239	0.188936	-0.469504	0.400449	0.143317	-0.399643	-0.156092	0.33135	0.497249	-0.00634505	0.473754	-0.254156	0.432171	0.247836	0.336384	0.135484	0.257243	-0.0304511	0.352932	0.0203277	0.370422	0.124631	-0.504983	0.127748	-0.366071	0.429823	-0.260236	-0.668548	0.0656642	-0.0640194	-0.039987	-0.0818144	0.264616	-0.194367	0.223603	0.185216	-0.282018	0.478698	-0.0852973	-0.335674	-0.434771	-0.522921	0.531643	0.155932	0.401827	-0.57389	-0.23917	-0.136087	-0.216936	-0.454104	-0.00241885	-0.455709	0.317028	-0.577279	-0.46069	-0.158359	-0.320787	-0.437398	0.169875	-0.440363	0.253729	0.00702305	0.486173	-0.263768	0.216544	0.312891	0.193407	0.00110996	0.082531	0.424446	-0.423201	-0.05069	0.228489	0.290367	0.0203078	-0.480647	-0.429083	-0.0125393	-0.162167	0.220957	-0.0226311	-0.713915	-0.467394	0.258783	-0.0724981	-0.148077	-0.0971978	0.520641	-0.106205	-0.162926	0.0713856	0.21572	0.296045	-0.155782	0.335669	0.154771	0.111088	0.0751994	0.3223	-0.41424	-0.318832	-0.066423	-0.779331	-0.483159	0.136426	-0.369803	0.418941	-0.0514919	-0.163392	0.211985	-0.0263183	0.450442	-0.356808	0.0518996	0.252075	-0.279432	0.21453	0.485339	0.456633	0.25454	0.0371868	-0.183642	-0.000205263	0.32934	0.337411	0.0360828	0.206733	-0.236699	-0.0870822	-0.458686	-0.422245	-0.401002	0.577195	0.254632	0.128936	-0.299011	0.349522	0.613342	-0.514899	0.27701	0.443923	0.132987	0.233043	-0.1816	-0.350502	0.0607776	-0.419706	-0.171471	-0.200773	-0.174401	0.66269	0.272237	-0.168201	-0.0672419	-0.404291	0.0185999	-0.0582068	-0.455418	0.00933562	-0.540742	0.651601	-0.183806	0.0688431	-0.307957	0.52388	0.16278	-0.089887	0.0171323	-0.0833037	0.426083	0.0985096	0.134559	0.0522019	0.313501	-0.0619823	0.376859	-0.160573	0.710749	0.410193	0.24928	0.120868	0.303478	0.122062	-0.370086	-0.210326	0.616162	0.326255	0.497939	-0.21408	0.407948	-0.088603	0.496805	0.429946	0.0998769	0.383525	-0.309323	-0.154767	-0.0250923	-0.111786	-0.290155	0.365976	-0.0211791	-0.323106	0.367278	0.0686208	0.7104	0.0474616	0.11655	0.714817	-0.3165	-0.558414	0.346396	0.137376	-0.589867	0.113455	-0.107037	0.482477	-0.0061358	0.642514	0.0793644	0.587828	0.189876	-0.136765	0.0849827	-0.255477	-0.114106	-0.291742	-0.107306	-0.111956	0.249396	0.508378	-0.0552349	-0.031976	0.332977	0.57271	0.624656	0.181068	-0.0544034	-0.340793	-0.292134	0.127236	0.437337	-0.253088	0.333003	-0.0296032	0.816898	-0.0748933	0.41212	-0.142372	0.508778	-0.30559	0.396673	-0.187289	-0.142994	0.423198	0.573917	0.280163	0.391945	0.129615	0.342132	0.0721101	0.476089	0.406497	1.02271	0.862197	-0.104291	-0.073651	0.334526	-0.270294	0.0306238	-0.013105	-0.10829	-0.0464653	0.455169	-0.122057	0.106548	0.00372638	-0.180713	-0.0778069	0.368911	0.209128	-0.481109	0.56946	0.372251	0.253291	0.20087	0.0829423	0.600353	0.0147639	0.791266	0.313606	-0.245318	0.0786432	-0.273579	0.232063	0.0905242	0.476172	0.0103803	0.0260256	0.325483	0.645673	-0.110799	-0.027368	0.324559	-0.0606533	-0.111957	-0.166201	-0.495056	-0.273797	-0.398189	0.384062	-0.127851	-0.314714	0.224072	0.0744141	0.139351	0.701807	0.10548	0.131678	0.4851	0.318366	-0.11114	0.0406527	0.607735	0.208771	-0.0785497	-0.0669955	-0.192349	0.736214	0.0209414	0.58758	-0.0909045	-0.457915	-0.264806	0.380276	0.35047	0.489413	0.261709	-0.283408	0.28589	0.136982	0.213759	0.481252	0.00189019	-0.266336	-0.0480374	-0.227615	0.0297978	-0.363468	0.239616	-0.203088	0.130019	0.0562146	0.509252	-0.218971	0.0937084	-0.396215	0.359273	-0.184078	-0.156248	0.338698	0.172903	-0.111621	0.451883	0.0778286	0.443512	-0.134035	-0.0257783	0.485566	1.00164	0.153065	0.587342	0.00267143	-0.120946	-0.236325	-0.169547	-0.787178	-0.272559	-0.486818	0.211152	0.438949	0.200747	0.228203	-0.27922	0.395619	-0.192982	-0.140309	-0.0677178	-0.0795465	-0.408819	0.403675	-0.19327	-0.55398	0.233922	0.0384304	0.473556	-0.283606	0.0316583	-0.640482	0.0883175	-0.268581	-0.0635657	0.136743	-0.225073	-0.471495	-0.422934	-0.349958	0.242129	-0.0213937	0.187925	0.633468	0.766467	0.302271	0.451598	0.3253	0.00541704	-0.264458	-0.288659	0.392117	-0.299292	-0.322014	-0.322051	-0.384637	-0.22654	-0.0896372	-0.52427	-0.387563	-0.261555	-0.811047	-0.216081	-0.618202	-0.398126	0.0391586	-0.437106	-0.144276	-0.477354	-0.138421	-0.0762274	-0.183798	0.340052	0.0688955	0.570974	-0.393033	-0.478912	0.266076	0.447569	-0.499266	0.364101	0.345056	-0.530927	0.0345116	0.471248	0.511538	-0.126027	0.244135	-0.461905	-0.618966	-0.0354325	0.159956	0.427086	0.106996	-0.233046	-0.405366	0.316645	-0.163717	0.454222	-0.417081	0.20983	0.018436	-0.283074	0.1451	0.0993225	-0.386622	0.000565645	-0.113299	-0.407528	0.378658	-0.0152344	0.378427	0.324708	-0.432218	-0.42431	0.212311	-0.157015	0.435648	-0.453656	-0.362543	-0.240042	-0.0748141	-0.151234	0.324244	0.316431	0.280908	0.474151	0.405332	0.414047	-0.301995	0.272088	-0.264336	-0.0645314	-0.379512	0.0436872	-0.155323	0.214073	0.337245	0.128682	0.171614	0.267997	0.307088	0.141551	0.398913	0.273553	-0.235068	0.531099	0.424957	-0.129503	0.377163	0.0402387	0.0321818	0.190268	-0.418546	0.510255	-0.273583	-0.2005	0.23918	-0.402349	0.198316	-0.257447	0.447835	-0.311496	0.285202	-0.125729	-0.536661	-0.353977	-0.308871	-0.0522711	-0.0118646	-0.0209897	-0.457313	0.124919	0.411579	0.392627	-0.396306	-0.0240415	-0.0621591	0.0306782	-0.32645	-0.0901141	0.418477	-0.366065	0.339609	-0.422926	0.305001	0.186437	-0.312083	0.222083	-0.424391	-0.0684233	0.259742	-0.350811	0.17307	-0.417097	-0.265176	-0.342449	-0.267468	-0.0770906	-0.370628	-0.39256	-0.195777	0.0505378	-0.388227	0.0972006	0.424024	-0.276987	-0.397596	0.290505	-0.156601	-0.407773	0.352687	-0.0337687	-0.409116	0.371303	0.416074	-0.423429	0.352535	0.377864	-0.168326	-0.041551	0.285521	-0.471196	0.543943	0.458888	-0.247371	0.45351	-0.418068	-0.214499	-0.223533	0.392056	0.0978881	-0.130818	-0.25042	0.443022	0.106433	0.164546	-0.315271	0.423521	-0.339381	0.432249	-0.361232	0.0443892	0.483764	-0.49924	0.0809057	0.399888	0.474612	0.0813822	-0.321858	0.0163556	0.0128216	0.472636	0.0395482	-0.0937478	-0.459934	0.0543648	-0.153684	-0.303695	-0.403745	-0.0940123	-0.247765	-0.0311136	0.330475	0.0565966	-0.189077	0.153951	-0.00813318	0.321373	-0.0438495	0.173447	-0.136525	0.177124	-0.0902108	0.247859	-0.340256	0.44006	-0.272168	-0.192757	-0.0176702	-0.0973847	0.0747617	-0.181815	-0.0138219	-0.430052	-0.353757	-0.0633168	-0.0577014	0.398306	-0.250175	-0.25072	-0.0568102	-0.0629139	0.271477	0.0899694	0.366983	0.255626	0.158237	0.181544	-0.576545	-0.0874707	-0.489636	-0.0505519	-0.322295	0.39239	-0.0725127	0.292705	0.342792	-0.455056	-0.00389835	-0.334432	0.249849	0.286013	0.100446	0.376424	-0.0671316	0.0849788	0.0781781	0.00108341	-0.0120396	-0.128346	0.252297	-0.178965	0.0350303	-0.190525	0.292581	-0.558099	-0.318452	0.0900498	-0.391183	0.221376	-0.771432	-0.611359	-0.360172	-0.476107	-0.0919837	0.15654	-0.511158	-0.298861	-0.0456106	-0.0824076	0.295726	-0.270048	-0.345667	-0.425224	-0.229423	0.0970641	0.203848	-0.0543576	0.211172	-0.407318	-0.503936	-0.628694	0.374476	-0.124737	-0.0357725	-0.0156849	0.249118	-0.0356353	-0.027437	0.159532	0.137608	-0.0349827	0.17656	-0.321023	-0.565349	-0.473329	-0.359839	0.295916	0.0837595	0.303004	-0.062207	0.251396	-0.0984581	0.122217	0.342745	0.035654	-0.190868	-0.201844	0.296116	-0.318577	0.490284	0.701008	0.126202	0.440916	0.263305	-0.162348	0.497894	-0.191382	0.709712	0.261353	0.0222772	0.0934621	-0.0485886	-0.392643	0.372429	-0.0719782	0.144366	0.058982	0.166311	-0.47112	-0.0383559	0.306033	0.128786	-0.765097	0.808928	-0.167936	0.507773	0.240433	0.308173	0.253785	0.507846	0.0317151	0.0877677	-0.137762	0.878759	0.213614	0.529236	0.154808	-0.0414305	0.319302	-0.28843	-0.0222095	-0.355797	0.31968	-0.225389	0.00584429	-0.0763726	-0.502141	0.0291559	-0.23509	0.120453	0.352704	0.225039	-0.126951	-0.325283	0.550962	0.511681	0.603241	0.1684	-0.392168	-0.349376	0.120326	0.194522	0.431087	0.505065	0.275165	0.430269	0.42996	-0.385911	0.249988	-0.293163	0.413973	-0.148518	0.0961486	0.370113	0.396522	-0.519629	0.0637934	-0.193005	0.350076	0.383623	-0.0841225	0.0278486	0.0831721	0.150658	0.188071	-0.330565	-0.365431	0.689991	0.355765	0.536882	0.324896	-0.144945	-0.092919	-0.225967	0.286235	0.176737	0.243614	-0.0156968	-0.452177	0.31869	-0.333277	0.438735	0.044363	0.368779	-0.64383	-0.295529	-0.373607	-0.095732	0.451745	-0.287387	-0.327885	0.278469	0.139142	0.498785	0.298824	0.570761	0.494594	-0.114964	-0.373208	-0.133595	-0.0136851	-0.34687	0.207148	0.19161	0.12713	-0.116077	0.341395	0.0113823	-0.0395779	0.576699	0.415346	0.125039	-0.120637	-0.0399589	-0.357619	-0.458849	-0.233383	0.447004	-0.420089	0.775166	0.131453	-0.0737978	-0.337185	0.446023	-0.372509	0.306243	0.2274	-0.373703	-0.445885	-0.112848	-0.40998	0.192287	0.190756	-0.181112	0.172797	-0.221565	-0.333226	0.0297428	0.282725	-0.159888	0.0132931	0.00214171	0.251922	-0.404978	0.230858	0.485816	0.2475	-0.884274	-0.175362	0.128428	-0.165088	-0.299263	0.101196	0.0387892	0.654362	-0.331941	0.0569042	0.173089	-0.0941599	-0.211081	-0.350845	-0.0159914	0.246356	0.362823	-0.0488658	-0.0902524	0.596905	-0.184421	-0.431154	0.217386	0.124133	-0.811807	-0.410522	-0.318555	-0.0060673	-0.185986	0.0453427	-0.134325	0.214487	0.261591	-0.0631083	-0.230653	-0.355024	-0.367067	-0.449012	0.138574	0.197592	-0.215252	-0.122688	0.384134	-0.0368499	-0.247517	-0.306382	0.199008	-0.383275	0.627731	-0.186406	-0.126501	-0.0675218	-0.654222	0.273453	0.0970437	0.700854	-0.0323191	-0.618015	-0.481256	-0.0358155	-0.517867	-0.165555	-0.0138911	-0.0774068	0.280502	0.520666	-0.349239	0.193849	0.143159	0.143583	-0.163546	0.074395	-0.70071	-0.369375	0.127258	0.0533349	-0.448579	-0.0963622	-0.247458	0.380867	-0.127714	0.267277	-0.511914	-0.519516	-0.643388	-0.0195177	0.128365	-0.101828	-0.808976	-0.271768	0.281137	0.466552	0.0342315	-0.432768	-0.222587	-0.42129	0.47095	-0.126258	-0.0751372	-0.2094	0.251943	0.670227	0.0907153	-0.50026	-0.0938155	-0.599628	0.308615	-0.419208	-0.334794	-0.0580109	-0.31028	0.321436	-0.652494	-0.233313	0.370939	-0.735305	0.270979	-0.274376	0.0759758	-0.476679	-0.0140843	-0.151692	-0.0825084	-0.495512	0.0616922	0.320136	-0.100234	-0.280178	0.0781771	0.0301213	-0.53851	0.220359	-0.0708585	-0.386653	-0.200486	0.143142	-0.82397	-0.0515707	0.399185	-0.202345	0.250477	-0.198913	-0.393503	0.287084	-0.485579	0.281976	0.0050253	-0.410031	0.344359	-0.260252	-0.0781389	-0.549604	0.231013	0.0502583	-0.845388	-0.393921	-0.5123	-0.117382	-0.135571	-0.309777	-0.408413	-0.350968	0.0791083	0.059668	-0.126515	0.0834368	-0.600601	-0.392023	-0.213533	-0.0955289	-0.254739	-0.453548	0.348842	-0.408317	-0.107746	0.184683	-0.325858	0.151082	-1.4853e-005	-0.339581	-0.410407	-0.774436	-0.38955	-0.194739	-0.383508	-0.306519	0.34509	-0.0265991	-0.0922662	0.078776	-0.588243	-0.0362942	0.257971	-0.450277	0.34291	-0.275796	-0.261865	-0.0440464	-0.233633	0.0204016	-0.259234	-0.432279	-0.242617	-0.0877669	0.36036	-0.396948	-0.0228221	-0.170475	0.246314	0.0353559	-0.288557	-0.0311365	-0.433548	-0.110264	-0.10316	0.459538	-0.0970051	-0.49916	-0.121224	-0.430195	-0.105853	-0.0258229	0.291379	0.169674	0.289398	-0.326106	0.324244	-0.112684	0.0655995	-0.39993	0.272851	-0.129078	0.383005	-0.185356	-0.293491	0.17269	0.0505335	-0.358645	0.0588251	0.163537	-0.000102951	-0.209941	0.18311	-0.226657	0.276437	0.611294	-0.302282	-0.496784	0.0689962	0.189134	-0.310864	0.429716	0.175161	0.247215	0.266386	-0.300256	0.237663	-0.321924	0.387234	0.173549	0.227256	0.559869	-0.0122448	0.362443	0.0149174	-0.356511	0.400734	-0.224328	0.0750847	0.241834	0.0811265	0.954753	0.0503328	0.0200947	-0.0295752	0.25893	0.0235145	-0.468566	-0.131916	-0.49704	0.485778	-0.0678529	-0.0837886	0.373287	0.137471	0.330567	-0.12834	-0.0872321	0.4773	0.0931272	-0.0145244	-0.298141	0.0346032	-0.0290393	-0.01452	-0.0815055	0.563988	-0.222852	0.259721	-0.2774	-0.0522961	-0.332425	-0.198355	-0.00605792	-0.0534532	0.300501	-0.29751	0.307672	-0.0440515	0.4537	-0.423646	-0.426759	-0.252956	0.454524	-0.0208929	-0.0360606	0.334953	-0.258877	-0.0218085	0.36141	0.0740652	-0.203067	0.167938	0.374377	-0.0808313	-0.0190618	0.144639	-0.320893	-0.131861	-0.488925	-0.136742	-0.0299264	-0.120201	-0.200403	-0.424989	-0.183386	0.387672	0.0582554	0.513378	0.137451	-0.373459	-0.413713	0.392097	0.520764	0.193453	0.409066	0.33222	0.539777	0.424935	0.429177	0.387886	0.245364	0.0281642	0.445688	-0.0991896	-0.103828	-0.123757	0.392372	-0.0900035	0.354102	-0.0534729	0.148407	-0.1495	-0.410419	-0.233382	-0.338182	0.116696	-0.427632	-0.480582	-0.0885709	0.0101565	0.467476	-0.397937	-0.122721	-0.0815211	-0.017127	0.359807	-0.462223	-0.104807	-0.189871	-0.210035	-0.389423	-0.434315	0.284975	0.366887	-0.0788355	-0.198865	0.20404	0.352848	-0.0911586	-0.245445	0.0725883	0.48822	-0.426878	-0.499573	0.140522	-0.450652	0.0498825	-0.283765	-0.404679	0.473052	0.247021	-0.0405026	-0.152194	-0.347299	-0.557632	0.401051	0.114268	-0.347987	-0.336238	-0.291345	0.395657	0.183645	-0.169118	-0.318812	-0.223106	0.027589	0.100879	0.424467	0.264519	0.235313	-0.420042	0.0849788	-0.477203	0.14196	-0.401293	0.2327	-0.0467164	0.475135	-0.00493214	0.0762961	-0.0219856	-0.33495	-0.501086	-0.468814	-0.347549	-0.246991	0.495673	0.115454	-0.0109104	-0.144642	0.395322	0.442656	-0.405103	0.238792	0.390042	0.0332804	0.0229652	0.164849	0.305189	-0.00695696	-0.390551	0.339878	0.341951	0.280012	0.379252	-0.109193	-0.0650805	-0.0345308	0.268624	-0.371801	-0.19658	0.131878	0.36303	0.438968	-0.0538248	0.0395359	0.505584	0.502776	-0.437407	-0.151769	-0.0361187	0.285211	0.0586108	-0.449309	0.0952974	-0.378477	0.497245	0.345523	0.66889	-0.269889	0.368587	-0.120963	0.385708	0.121523	0.0884338	0.466465	-0.341182	0.47543	-0.0265861	0.398034	-0.325062	-0.0252627	-0.175924	0.392574	0.119006	0.20513	-0.0213933	0.303766	-0.141621	-0.296228	-0.408139	0.326521	0.455237	-0.17791	0.325167	0.307261	-0.291576	-0.0490459	0.475421	0.192433	-0.331986	0.0248306	-0.0427993	-0.249001	-0.207201	0.230743	-0.437243	0.0588805	0.07929	-0.233392	-0.130565	-0.0530379	0.486622	0.260292	0.149922	-0.0441755	-0.124805	0.0466559	0.207373	0.129831	-0.0479164	0.487196	0.404364	0.457659	0.203071	-0.133674	0.160902	-0.593178	-0.133475	-0.177024	-0.779669	-0.100727	-0.420325	-0.285326	0.315674	-0.273858	0.522502	-0.335657	0.27403	0.0946724	0.0596029	-0.436338	-0.22447	-0.383392	-0.434115	0.350992	0.513234	0.159069	-0.103137	0.0536282	0.294863	-0.267926	0.922434	0.307028	0.274375	0.0895325	-0.323918	0.0402363	0.274261	0.630071	0.417906	-0.239541	-0.162215	-0.334869	0.190438	0.17024	0.07897	0.304941	-0.340052	-0.210584	-0.298703	-0.208304	-0.156174	0.238158	-0.306771	-0.1657	0.0593119	-0.0951546	0.344444	0.317417	0.52943	0.588419	0.547215	-0.0277129	-0.354497	-0.126361	-0.535503	-0.669206	0.103553	0.275216	0.285527	0.329956	0.284069	0.00537654	0.488601	-0.267052	0.308679	0.23997	-0.519849	-0.250758	0.260187	0.447756	-0.684464	0.327093	0.442598	0.303418	-0.0801602	0.205077	0.491595	0.434472	0.344663	-0.19561	0.189552	-0.29724	-0.347134	0.0962552	0.394034	0.186257	0.146047	0.342839	-0.313267	-0.406842	-0.0420392	-0.437346	-0.391629	0.210344	0.293769	-0.502377	0.48445	-0.320236	-0.52513	0.0189842	0.234324	0.719226	0.122829	-0.515081	-0.491462	-0.244472	-0.133937	0.130993	0.239191	-0.28516	0.0702293	0.343447	0.408322	0.262261	0.406744	-0.281793	-0.291574	-0.45764	0.152089	-0.087817	0.338084	-0.183041	0.231597	0.396233	-0.121176	-0.502833	0.0249842	0.0471362	-0.469047	0.170837	-0.0721343	0.0089661	-0.223877	-0.000439706	0.0473402	-0.0229133	-0.458706	-0.448193	-0.172036	-0.0029798	0.358075	-0.109392	0.244255	-0.115024	-0.317103	0.417936	0.452134	-0.056113	-0.197888	-0.342067	-0.267595	-0.165709	-0.149161	-0.189434	-0.0472854	-0.403826	-0.506461	-0.144622	0.0911409	-0.173911	0.0700811	-0.517427	-0.0975544	0.0645461	0.235851	0.241708	-0.274457	0.00186172	-0.0924764	0.396276	0.323313	-0.3717	0.445677	0.343923	0.103801	-0.275524	-0.647453	-0.518994	-0.267272	0.534729	-0.269984	0.223957	-0.126207	-0.0808954	-0.125246	-0.494357	0.25763	0.0702495	-0.271704	-0.222188	0.409552	-0.0253696	-0.0959235	0.251341	0.585339	-0.405216	-0.288566	-0.152348	0.103351	-0.120107	-0.0709455	-0.399706	0.0931214	0.279373	-0.347741	0.119795	0.106503	-0.174857	-0.360015	-0.173021	0.267858	0.173611	0.421882	-0.161722	-0.0207541	0.307018	-0.0217205	-0.269347	0.492093	0.66094	0.0132977	-0.066032	-0.295582	0.482461	0.194861	-0.354244	0.43887	0.38425	0.370281	-0.0652067	-0.253205	0.465428	0.482344	0.208805	-0.114751	1.87297e-006	-0.0394811	0.21354	0.558223	-0.479258	0.308076	-0.217328	-0.27484	-0.0796152	-0.358501	0.363684	-0.0379619	-0.175225	0.332616	0.379579	0.0393022	-0.272713	-0.134388	-0.451202	-0.417838	0.186137	-0.0988836	0.161616	0.059543	-0.324517	0.224385	0.327783	0.452164	-0.0869031	0.481127	0.293827	0.194516	-0.158945	0.0562171	0.547224	0.486886	0.250255	0.369468	0.45148	-0.360996	-0.0581986	-0.0173499	-0.107318	0.103916	-0.15743	0.0622425	-0.0650902	0.229633	-0.307143	-0.105445	0.355917	0.420743	-0.104063	-0.367806	0.275563	0.501226	0.0369567	0.413058	0.0666609	0.29635	0.120193	-0.232841	0.065578	-0.0488441	-0.121369	-0.105449	0.193536	0.322106	-0.253741	0.271844	-0.0198978	-0.357753	0.470794	-0.575316	-0.0277987	-0.67195	0.279308	-0.316079	0.340593	-0.348021	0.0361913	0.16047	-0.145385	0.269611	-0.523515	0.0714859	0.213409	0.429332	-0.0686871	-0.533904	0.54131	0.24067	-0.206713	0.425567	-0.202206	0.0537928	0.281762	0.511887	0.239769	-0.0327978	0.0525463	0.21893	0.186501	0.0793136	-0.187277	0.624967	0.331843	0.035851	-0.0184294	-0.0721681	0.0664353	-0.0060674	-0.400665	0.106158	0.0803812	0.416967	0.158925	0.217772	-0.52082	0.130668	0.0971991	-0.0965841	-0.0115792	0.0886463	0.0229807	-0.0453963	0.447905	0.126875	-0.268702	-0.391745	0.00509179	-0.343866	0.0125713	0.0312499	-0.201335	0.0797187	0.372368	0.0139961	0.601693	-0.090732	0.161094	-0.0998141	0.0488288	-0.206786	0.281101	-0.266063	-0.480004	-0.421567	-0.306731	-0.319944	0.115253	-0.361156	-0.481658	-0.53453	0.00387789	0.426614	0.372886	-0.452251	-0.113173	0.488313	0.192924	0.533374	0.447589	-0.0255023	-0.161888	0.389538	0.410328	0.225181	0.499571	0.638099	0.133071	-0.339035	-0.297289	-0.225309	0.531995	0.117553	-0.177786	0.352412	0.295633	0.342341	0.475494	0.0492416	0.276971	-0.420214	0.158384	0.465378	-0.188098	-0.173782	0.150474	-0.58922	-0.209351	-0.0369382	0.684044	0.41327	0.747719	-0.158118	-0.392257	-0.289917	-0.330875	0.0416208	-0.538032	0.442948	0.0908383	-0.453764	-0.357906	0.365734	-0.159719	-0.220664	0.477264	0.275384	0.42017	0.430326	-0.130938	0.428039	0.386775	-0.492103	-0.255715	0.32243	0.27732	-0.257238	0.382408	0.175344	-0.115324	-0.520494	-0.522973	0.439992	-0.54228	0.300653	0.420743	-0.411496	0.0259255	-0.183279	-0.0941799	-0.18627	0.220817	0.138264	-0.350636	0.0189735	0.317903	0.0451279	-0.0759148	-0.373361	0.0882659	0.390342	0.230912	0.0687169	-0.37603	-0.18612	0.220569	-0.49657	-0.217572	-0.241712	-0.0389166	0.124592	-0.395016	-0.283044	-0.351192	-0.231803	0.0104221	-0.0957793	0.164742	0.0722097	-0.17261	-0.258061	0.119605	0.137825	-0.41572	0.37767	0.1905	-0.100769	-0.29659	0.394679	-0.315839	-0.246804	-0.315974	-0.182437	-0.0667411	-0.231327	-0.134452	-0.461275	0.013431	-0.101166	0.262676	-0.408975	0.406418	-0.121277	0.447789	-0.10392	-0.0620789	-0.170664	-0.113045	-0.329696	0.496013	-0.141549	-0.347396	-0.0742558	-0.261365	0.105804	-0.0212146	-0.239819	-0.256115	-0.277356	-0.244061	-0.0306448	0.22272	-0.218486	-0.350173	0.406319	0.565687	-0.238293	-0.230144	0.600783	0.110015	0.198042	0.179027	0.274245	0.138834	-0.398383	0.0215208	-0.0972572	-0.361486	0.386095	-0.501017	-0.0671659	0.295608	-0.231203	-0.498118	-0.167755	-0.220378	-0.0349689	0.119064	-0.418037	-0.139831	0.199078	-0.141234	-0.239718	0.184764	-0.288822	-0.328618	-0.144683	-0.465756	-0.175283	-0.0315714	0.0907773	-0.431364	-0.415952	-0.261071	-0.473907	0.344295	0.155386	0.000748465	-0.237907	-0.416423	-0.405705	0.0897303	-0.0427506	-0.0629538	-0.00644864	0.119196	-0.4476	0.345332	-0.160329	0.00431837	0.266076	-0.382351	0.440916	-0.0285806	-0.0533898	-0.119098	-0.216208	-0.398373	-0.0608692	-0.0583056	0.224235	-0.000350963	-0.224342	0.495275	0.193449	0.662929	0.187556	-0.157571	0.491432	-0.238373	0.382981	0.211192	-0.0501397	0.378319	0.317312	0.433839	0.237046	0.136311	-0.0924863	-0.412992	-0.165792	-0.0895237	0.465758	-0.300104	0.0409711	-0.0408795	-0.382642	-0.234081	0.323135	-0.17561	-0.409592	0.290666	-0.250128	0.48541	0.529523	-0.277957	0.235751	-0.0605618	0.179123	0.77982	0.253715	-0.493808	0.0054251	0.077035	-0.427105	0.234445	-0.387889	0.19161	0.431244	-0.177602	0.280053	-0.370022	-0.136108	0.402832	0.176242	0.559059	0.096634	0.386135	0.473299	0.210078	0.0166612	0.286618	0.382767	-0.340544	0.28694	-0.379653	-0.381704	0.18543	-0.239703	-0.326714	0.285398	-0.338063	-0.373087	-0.283851	-0.449034	0.290218	0.0791192	-0.426145	0.361965	-0.0877671	-0.344131	0.162618	0.822294	0.672567	0.336166	0.0707532	-0.0326123	-0.511859	0.078288	0.137347	0.582804	-0.222782	0.0462643	-0.340473	-0.010364	-0.250969	0.524748	0.121397	0.393192	-0.210738	-0.526588	-0.00479912	-0.36593	-0.179434	-0.488678	0.120869	0.269375	0.59135	-0.101363	0.582434	-0.0998381	-0.232982	-0.223679	0.406215	-0.323047	0.559206	-0.262436	0.139282	-0.350679	0.268152	0.148911	0.643468	-0.32063	0.239063	-0.34936	-0.427106	-0.182411	-0.362903	0.260498	0.466065	0.378933	0.333518	0.482251	-0.100402	-0.170078	-0.23456	-0.291237	-0.00630256	-0.0232735	-0.209497	0.392434	0.761527	0.139168	0.228508	0.198135	-0.460576	0.389095	0.91724	0.339928	0.381993	0.30281	0.0170218	0.528447	-0.436957	0.362644	0.276361	0.318997	0.493042	-0.190851	-0.362423	0.366111	0.320417	-0.213474	-0.144952	0.139174	-0.172089	-0.160179	0.0873976	0.378676	0.373901	0.155042	-0.115169	0.162788	-0.135431	0.429169	0.717198	0.201025	-0.28734	-0.294745	0.454996	-0.730383	-0.654523	-0.142191	-0.0779572	0.454772	-0.149586	-0.269569	-0.423993	-0.56735	-0.594973	-0.573032	-0.383433	-0.535992	0.288348	-0.304925	0.184703	0.17147	0.0820032	0.251573	-0.146531	-0.0033801	0.505245	0.555766	-0.0813783	-0.0261907	0.186765	0.171867	0.319885	-0.124172	-0.242444	0.0817767	0.491119	0.417753	-0.22927	-0.127965	0.231963	-0.341201	0.325636	-0.0943752	0.0815261	-0.496527	-0.252292	0.388302	0.1006	0.370331	-0.430908	-0.542868	-0.133459	0.0372539	0.229368	0.310888	0.399978	0.665164	0.100107	-0.165825	-0.378735	0.252281	-0.493803	0.359371	0.285333	-0.439848	0.363888	0.327778	0.344496	-0.316011	-0.104597	0.0993022	-0.775901	-0.217449	0.393446	-0.207952	-0.351657	0.502592	-0.458243	0.153224	0.412967	0.461903	-0.325635	-0.0512075	-0.209858	0.465567	-0.401965	-0.358966	-0.410276	0.133597	-0.0724357	-0.379299	-0.239755	-0.339508	-0.497326	0.0873029	-0.0242444	0.0832503	-0.602486	-0.781661	-0.178011	-0.240102	-0.296665	0.254717	0.0324176	-0.61193	-0.111833	0.299744	-0.519782	0.435814	-0.317677	0.547184	-0.327046	0.0113547	0.25671	-0.382813	-0.377863	0.170797	0.251396	-0.150394	0.0358713	-0.469817	-0.951841	-0.241383	-0.597979	-0.332085	0.0652111	-0.182525	0.248729	-0.0463264	-0.738643	0.0365134	-0.401098	-0.111445	-0.234656	0.268051	0.210492	-0.107936	0.198038	0.473757	0.208908	-0.0641457	0.366945	-0.506071	-0.269372	0.138803	-0.270759	-0.554619	0.291829	-0.0555625	-0.244233	-0.697647	-0.554603	-0.467458	-0.760095	-0.184299	-0.16331	-0.551549	0.202283	-0.755686	-0.301105	-0.0672914	0.21461	0.170142	0.324321	0.211263	0.133119	0.150402	0.419052	0.413816	-0.333062	0.0962401	0.120858	-0.149717	-0.539289	-0.280809	-0.252717	-0.25031	-0.521086	-0.200412	-1.2041	-0.677629	0.325783	-0.32295	0.455205	-0.160972	0.319257	0.455829	-0.225349	0.036011	-0.325309	0.0544148	-0.0139133	0.0935772	-0.28075	-0.196347	0.492065	0.0269654	0.375057	0.278669	-0.31824	-0.334304	0.383598	0.0731335	-0.0276299	-0.767701	-0.230775	-0.488099	-0.613441	-0.0509914	0.139037	0.330731	0.00990336	-0.146391	-0.252338	-0.256262	-0.0786417	-0.709964	0.00102836	-0.256315	0.234501	-0.384948	0.10117	0.129505	-0.133227	-0.0849483	-0.136769	-0.462929	0.236666	0.392426	0.00413239	0.455917	0.436868	-0.183751	-0.269769	0.107496	0.132095	0.454995	0.540319	0.344684	-0.240767	-0.547027	0.0996068	-0.771171	-0.439702	-0.238275	-0.359201	-0.364102	0.24348	-0.0499391	0.191336	-0.00147786	-0.292596	0.00608844	-0.0832133	0.360565	0.367534	0.27377	-0.289183	-0.238425	0.0542771	-0.220069	-0.0512954	-0.0473514	-0.393388	-0.141973	0.193044	0.295486	-0.0487482	-0.196693	0.290979	0.111692	0.122992	0.338527	-0.42536	-0.384323	-0.272716	-0.0040437	-0.493498	-0.480224	-0.255862	-0.00856911	0.390489	-0.666025	0.10386	-0.427073	-0.0138127	0.379842	-0.260226	-0.20309	0.160381	-0.751915	0.310518	-0.0982421	-0.366757	0.317074	0.361658	-0.0202033	-0.13179	-0.233786	-0.10553	-0.277721	-0.0393173	-0.19933	0.256532	0.184593	-0.477416	-0.490509	0.309188	-0.391513	0.13596	-0.132256	-0.521277	-0.101371	0.285101	0.173988	-0.423704	0.108701	0.395654	0.151853	0.196724	-0.0319336	0.5136	-0.556905	-0.319441	-0.168172	-0.542406	0.124273	-0.137113	-0.273353	0.257829	-0.0966369	-0.0566248	0.13744	-0.047579	0.266212	-0.191492	-0.694401	0.0634823	-0.194866	0.050031	-0.0207896	0.0534534	0.697537	0.57223	0.646493	-0.150985	0.444046	0.339565	-0.298757	0.265114	-0.0354711	-0.000874192	-0.296878	0.264176	-0.1263	-0.440854	0.106494	-0.46234	-0.349389	0.284967	-0.150563	0.0925169	-0.161489	-0.223994	-0.316911	-0.114101	-0.0199611	0.066947	-0.416082	-0.218557	0.291895	-0.42811	0.409158	-0.403561	-0.262413	0.513139	-0.103616	-0.00176274	-0.218332	0.167826	0.275652	-0.422798	-0.312738	-0.0486007	-0.481292	-0.142169	-0.380917	0.259575	0.285394	-0.491729	0.0171891	0.261956	-0.12743	0.258403	-0.0450009	-0.645094	0.0134354	0.299122	0.137781	0.0575904	0.226684	-0.318726	0.0562512	0.663073	0.163959	0.275898	-0.127231	-0.153645	0.364864	-0.310297	0.390042	-0.183309	-0.232687	0.0453658	0.32165	0.160726	-0.0508062	0.284715	-0.0411623	0.180982	0.416105	-0.446188	0.36542	-0.281085	0.555844	0.0972511	0.643232	-0.238408	0.234544	-0.517019	-0.0804026	-0.355985	0.195851	0.197012	0.459807	0.359828	0.328333	-0.2846	0.281304	0.0158291	-0.439082	0.379119	-0.165239	0.227015	-0.196826	0.223658	-0.207874	0.266506	-0.204273	0.375854	-0.362762	-0.402914	0.466582	-0.236777	-0.383167	-0.280477	0.0865383	0.0734459	0.170401	0.010332	0.0164983	-0.298819	-0.10994	-0.267232	0.0620625	-0.254231	0.547649	0.331935	0.00303724	0.32989	-0.378689	-0.446348	-0.0309298	-0.311487	0.324061	0.463103	0.1274	-0.264732	0.073535	0.180136	0.175436	-0.293359	-0.325617	0.248497	0.109455	0.231315	-0.112262	-0.0561381	-0.0748155	0.353969	-0.0158842	-0.259636	-0.156727	0.0183129	-0.0131759	-0.446447	0.0538733	-0.367557	0.114849	0.143628	-0.261627	0.0840256	-0.362582	-0.23358	-0.168454	0.32027	0.18022	-0.0130843	-0.247509	-0.119868	-0.387773	-0.257476	-0.0104902	-0.0178452	-0.396336	0.0398653	0.0318084	0.0465184	-0.145626	-0.0963083	-0.159511	-0.49823	0.197195	-0.248924	-0.331477	0.180197	0.348964	-0.255425	0.312372	0.464075	-0.409212	-0.463195	0.162808	0.311298	0.172403	-0.338782	-0.152466	-0.214421	0.409743	0.402646	-0.0806146	0.350246	0.453825	0.436705	-0.338588	-0.195517	0.411252	-0.407413	-0.202139	0.482208	0.38464	-0.222678	-0.0998413	0.325709	0.0767388	-0.0243545	0.260414	0.46931	0.0187975	0.114249	0.0935001	0.250992	0.469386	-0.0688355	0.0432569	-0.0713836	-0.0349518	-0.555384	-0.114517	0.265268	-0.470336	-0.132099	-0.0639821	-0.358882	-0.10293	-0.200827	-0.456816	0.0793634	0.341731	-0.119847	-0.402962	-0.237783	0.150856	-0.539639	-0.745269	-0.151082	0.0291796	0.250178	0.171728	-0.0843263	0.131805	0.145613	-0.126313	0.168332	-0.18663	0.35617	-0.284681	0.345476	-0.364171	-0.420112	-0.301386	0.000130926	0.0544298	0.410764	0.0967895	0.329688	0.201769	-0.26076	0.386087	0.0428141	-0.357998	-0.172729	-0.110744	-0.0623281	0.366773	-0.395564	0.459536	0.326147	0.315465	0.0645365	0.0740356	0.165834	0.326596	-0.43083	-0.0918219	0.382525	0.0219489	-0.175161	0.268786	-0.206626	-0.40112	-0.301111	0.379982	-0.180325	0.332513	-0.048588	0.353788	0.164101	0.0975893	0.641796	0.571918	-0.483461	0.0870234	-0.23079	-0.325147	0.473572	0.00143133	-0.263624	-0.0409818	-0.47373	-0.0352528	0.246131	0.350319	-0.492598	-0.0857161	-0.128382	0.284875	0.453398	-0.0384991	0.231622	0.125834	-0.512843	0.399902	-0.426165	0.376701	-0.23254	0.0471243	-0.229351	0.233702	-0.377627	-0.537084	0.0926668	0.229831	0.550045	0.269816	0.372024	-0.543489	0.0448098	0.111217	0.0589928	0.209245	-0.165369	0.0821646	0.471343	-0.271919	0.160077	0.215577	-0.159939	0.18561	-0.573336	-0.341739	-0.352957	0.329076	-0.123608	-0.0122056	0.16189	-0.421867	-0.0322275	-0.420784	0.141808	0.365333	-0.450337	0.342254	0.0908234	0.130041	0.160557	0.0802097	0.227948	-0.348358	0.239335	0.002884	0.41197	-0.0202816	0.0730496	0.284075	-0.496387	-0.0031996	-0.691858	-0.277714	-0.618305	0.0475628	0.642315	0.353038	0.18007	-0.812837	-0.728927	-0.165649	-0.676253	-0.32337	-0.435767	0.208035	-0.00842627	0.826534	-0.133066	-0.204493	-0.137591	0.208756	-0.0920591	-0.386258	0.1105	0.402471	0.228331	-0.191292	-0.774126	0.0173946	0.378591	0.229673	-0.0201926	0.325301	-0.103281	0.42844	-0.103768	-0.123903	-0.674361	0.168839	-0.404029	0.14007	-0.35158	-0.471267	-0.179005	0.352692	0.0950742	-0.466275	0.434105	-0.40347	-0.293451	0.0807672	-0.116205	-0.131927	0.198745	-0.566317	-0.0757701	0.41557	0.213762	0.0799834	-0.0916827	0.657277	0.332902	0.0629989	-0.949415	0.256138	-0.553956	-0.702073	0.0886649	0.336473	0.0563175	-0.533067	-0.246384	-0.12586	-0.191427	-0.420505	-0.369045	0.109577	0.0973998	0.368203	0.232086	-0.160031	0.204601	0.480652	0.0266442	-0.508965	-0.173348	-0.44771	0.455933	0.314629	-0.457803	-0.723322	-0.385266	0.330616	0.324929	-0.205151	-0.343236	0.156155	-0.0878477	0.327103	-0.210846	0.477416	0.0290319	-0.209922	-0.0170751	0.295939	0.099768	-0.247507	-0.233972	-0.506521	-0.0530713	0.765894	0.507435	0.264194	-0.404767	0.346467	0.436192	-0.0554097	-0.463012	-0.0596979	-0.512375	0.248999	-0.276538	-0.284438	0.129674	-0.39131	0.377314	-0.349425	-0.186111	-0.257903	0.164388	0.0931272	0.407449	0.217791	-0.553164	0.0954308	-0.05086	-0.187569	0.227264	0.657275	0.234288	0.0574836	-0.0171929	0.222588	-0.121665	-0.0378486	-0.0686298	0.48092	-0.386191	-0.0160195	-0.0111541	0.175493	-0.102957	0.394676	0.260471	-0.241757	-0.259764	-0.234184	0.387423	-0.0624445	0.38575	8.54354e-005	-0.537655	-0.216807	-0.646067	-0.654996	-0.0758258	-0.541583	0.296594	0.525836	0.305085	0.286886	0.215818	0.0784219	-0.181197	-0.201602	0.235233	-0.259881	-0.0701938	0.610372	0.110829	-0.193767	-0.384366	0.549068	-0.16509	0.354341	0.0262618	0.0198827	-0.132317	-0.469576	-0.490004	0.0078508	-0.315442	-0.499328	-0.133657	0.33167	0.512765	0.240604	-0.470144	-0.556872	-0.148195	-0.421841	-0.15727	0.229622	-0.371691	0.246733	0.45598	-0.0768258	0.093545	-0.398252	-0.163692	0.041612	-0.38674	-0.140979	-0.52733	-0.060537	-0.240519	-0.866914	-0.0774765	0.433788	0.097865	-0.269983	-0.122993	0.436876	0.116258	0.0952861	-0.4766	0.213232	-0.457617	-0.144132	0.659995	-0.197886	0.0324807	0.132177	-0.114462	-0.0495597	-0.317225	0.281268	-0.321436	0.13039	-0.323574	0.319351	-0.305409	-0.0701193	0.189809	0.527837	-0.123944	0.131595	-0.107891	-0.231041	0.00319552	-0.584833	0.0718668	0.115575	-0.298239	0.0197535	-0.166093	-0.223326	0.207105	-0.0682158	-0.152479	-0.426	-0.500653	-0.222983	0.312641	0.0839717	-0.410123	0.318071	0.346267	0.376899	0.21084	-0.148166	0.32755	0.329378	-0.0499021	-0.170002	-0.784695	-0.20244	-0.0429492	-0.319182	0.106017	0.229199	-0.22912	-0.161381	-0.392778	-0.392595	0.477982	-0.358209	-0.167936	0.130767	-0.0401166	0.162063	0.332514	0.0540676	-0.290649	-0.289009	0.18196	-0.0662714	-0.298041	-0.208629	-0.315343	-0.612612	0.0527721	0.14598	0.394832	0.662944	-0.0296525	0.331017	0.400562	0.160069	0.577795	0.357732	-0.276244	0.174109	0.113485	-0.0724995	-0.391089	-0.130191	-0.0352401	0.00648518	-0.366054	0.40967	0.506353	0.0241109	0.546903	-0.000316398	-0.311565	-0.209695	-0.419363	0.0663485	0.0504655	0.561948	0.437506	-0.0888978	0.0584604	0.356018	-0.159275	0.216618	0.135247	-0.205261	-0.302518	0.47473	0.0151966	-0.468012	-0.443297	-0.274108	0.268365	0.229562	-0.0558169	-0.307653	0.581329	0.375249	0.234405	0.384641	0.31994	-0.34604	-0.154741	0.825318	0.0577624	-0.287819	0.480937	0.385309	-0.360227	-0.120787	-0.136915	-0.0197208	-0.401563	-0.0273033	-0.18166	-0.627383	-0.444578	0.361843	-0.332368	0.181021	0.341945	0.275933	0.197867	-0.147064	0.564832	0.244007	0.445469	-0.323988	0.119969	0.0674002	0.200972	-0.117758	0.649043	0.310357	-0.776416	-0.137657	-0.381578	0.168027	0.214706	-0.283691	0.0644543	-0.0796284	-0.0106662	-0.43939	0.44705	0.50094	-0.258782	0.00117496	0.218406	0.289819	0.234914	0.209769	0.0745656	-0.2221	0.535232	-0.315546	-0.347167	-0.200162	0.168464	-0.183319	-0.28828	-0.186401	0.277184	0.415365	0.228212	-0.21233	-0.380573	0.303217	-0.456145	-0.011948	0.0374004	-0.39758	-0.235838	-0.197226	-0.355892	0.162801	0.240896	0.0631863	0.287376	-0.302578	0.280328	-0.272865	-0.368848	-0.373186	-0.53537	0.340855	-0.530991	-0.0828897	0.557397	0.484766	-0.256474	0.417924	0.319715	0.339076	0.354518	-0.416623	-0.17745	-0.426786	-0.320093	0.460058	-0.590078	-0.161109	-0.121527	-0.173195	0.14139	0.136293	-0.416732	-0.295574	0.182773	0.0383601	-0.374609	-0.426619	-0.197028	0.147157	-0.350232	0.290046	-0.0315883	0.37037	-0.387476	-0.482358	-0.232004	-0.454484	-0.409927	-0.324017	0.206181	-0.588399	-0.300527	0.0371815	0.153885	0.00623575	-0.457584	0.051983	0.475001	-0.0674054	0.135421	0.0338855	-0.384004	0.142166	-0.0688398	0.406486	0.118911	0.0699889	-0.0586466	-0.315795	0.292561	-0.266508	-0.217648	0.512416	0.21715	0.343649	-0.0338656	0.420281	-0.389925	0.305347	-0.0662082	0.309444	0.450653	0.0699043	0.0417968	0.261591	-0.177631	0.100209	0.0242487	-0.435024	-0.252371	0.0541568	0.264216	-0.333184	-0.381079	0.18737	0.475561	-0.0495451	-0.155963	-0.302086	0.459717	-0.0776221	-0.364374	-0.343774	0.220208	-0.169819	0.0322657	-0.186636	-0.141163	0.237877	-0.490844	0.106342	-0.327174	-0.374508	0.132923	0.00245926	-0.164904	0.453246	-0.385787	0.0112017	0.329817	-0.134431	0.28349	-0.0340392	0.0730808	0.318323	0.0886105	0.0384686	0.466918	-0.332667	0.149068	0.333186	-0.24221	0.44042	0.21334	-0.471526	-0.10744	0.238426	0.286493	0.185598	-0.0425581	-0.0109895	-0.4919	-0.360844	0.471607	-0.452187	0.422325	-0.00237147	-0.234795	0.304615	0.0704282	0.364948	-0.110358	-0.112739	0.296659	0.286342	-0.290033	0.107349	-0.000625629	0.238212	-0.243957	-0.0856502	0.226188	-0.33694	0.0375835	0.00393403	0.445149	-0.288422	-0.209943	-0.169813	0.16564	0.241759	-0.433661	-0.0766252	-0.527496	0.296733	-0.0642406	0.0817805	0.401018	-0.295212	-0.417195	-0.425163	-0.434504	0.269967	0.222846	-0.473006	0.269158	-0.0860546	-0.438139	-0.200522	0.25753	0.273146	0.326993	0.22783	-0.258847	-0.227914	0.298274	-0.298253	0.193323	-0.561647	-0.416444	-0.486291	0.389063	-0.104381	-0.143215	0.880785	0.544113	-0.219593	0.303591	-0.159179	0.316684	0.396497	0.392163	0.37936	0.375263	-0.423887	-0.259545	0.44882	0.26045	0.451316	0.541664	-0.357684	-0.272905	0.324275	0.221348	-0.115046	0.112532	0.34834	0.0691403	-0.468519	0.406163	0.442071	0.421255	0.267849	0.118693	0.169551	-0.12345	-0.187212	0.191126	-0.318276	-0.196094	-0.228423	-0.111866	0.0986511	-0.400571	0.282413	-0.265638	-0.127925	0.480152	0.168702	0.00307729	-0.29016	-0.0153304	0.00445068	-0.346197	-0.173814	-0.277453	-0.276963	-0.286477	-0.0771412	0.624184	-0.260132	0.0338186	0.0216778	-0.309171	0.362562	-0.0435934	-0.191913	0.337573	0.115375	0.157888	0.133894	0.182609	0.0595059	-0.084752	0.175142	-0.0776022	0.308806	0.15726	-0.0817884	0.161835	-0.135471	0.114542	0.543279	0.775276	0.190014	0.199383	0.221112	-0.189525	-0.21143	-0.397819	-0.237173	0.289862	0.487574	-0.227232	-0.496742	0.314631	-0.282372	-0.282788	-0.268786	0.311925	0.319251	0.402313	-0.170346	0.383186	0.0138183	0.412487	-0.307516	-0.0372336	0.255583	0.101049	0.17478	0.0589436	0.276037	-0.32303	-0.203797	-0.271912	-0.0985925	-0.537272	-0.196558	-0.410558	0.219331	-0.124813	0.0115818	-0.295618	-0.482429	-0.188749	0.0733432	-0.0722892	-0.117864	-0.0593686	0.791015	0.272913	0.531308	0.0501739	-0.139801	0.329176	0.629915	0.340759	-0.0300327	-0.174778	-0.322119	-0.768955	-0.537722	-0.183271	-0.310433	-0.395129	0.139104	0.0367089	-0.263947	-0.335841	0.0179601	0.331629	-0.119518	0.555904	-0.280991	0.482841	0.121033	-0.149768	0.14792	0.278352	0.156454	0.354161	0.21738	0.193013	0.783067	0.0382665	-0.528352	0.210864	-0.446111	-0.256701	0.205005	0.366956	-0.169627	0.614744	0.091052	-0.173704	0.141469	0.258751	0.341853	-0.076344	-0.0687584	0.483086	-0.0549103	-0.673867	-0.119379	0.366661	0.113292	0.364478	-0.0991692	-0.0691149	-0.100731	0.615744	0.120081	0.19237	-0.553006	-0.402806	-0.205939	0.442234	-0.0757959	0.712605	0.45216	0.0208289	0.0809427	0.165761	-0.440275	-0.358402	0.360106	-0.148172	0.348988	-0.0225536	0.279115	-0.365565	-0.117705	-0.0582332	-0.167025	0.0650503	-0.590836	0.393011	0.534001	0.231363	0.442324	0.279605	-0.211784	0.107084	0.669075	0.0104518	-0.210917	-0.113418	-0.0294745	0.110698	0.332698	-0.234275	0.00145562	-0.179309	0.0648268	-0.00576735	0.0859379	-0.239803	0.259693	0.0869586	-0.432925	0.0559135	-0.129905	-0.30616	-0.29933	0.368571	0.115258	-0.695626	0.0227737	0.751434	-0.463443	-0.0296181	-0.223438	0.328801	0.00266259	-0.544879	0.4551	0.140156	0.157678	0.36429	-0.0506246	-0.288605	-0.452957	0.355026	-0.645866	0.174264	-0.624496	-0.698082	-0.537857	-0.742768	0.119311	0.0620304	-0.535662	-0.505205	0.124151	0.468399	-0.153163	-0.0804992	-0.312364	-0.380918	-0.192502	0.447108	-0.390841	-0.266663	0.365017	0.244106	0.515612	-0.097115	0.581381	0.442861	0.0528363	-0.00370769	-0.370318	-0.0538579	-0.12182	1.41221e-005	-0.826292	-0.260445	-0.0500112	-0.164128	-0.349101	-0.345246	0.105739	-0.150837	-0.0193397	-0.674751	-0.0628414	0.137249	0.207281	-0.187313	0.420278	-0.207083	-0.149827	0.460068	-0.0580687	0.538212	0.408023	0.0519138	0.411242	-0.366965	-0.12812	-0.667207	-0.565866	-0.556181	-0.278753	-0.448717	0.468952	-0.527772	0.128796	0.190271	0.284628	0.163452	-0.495164	0.0536485	0.280239	0.258047	-0.235374	-0.121151	0.479614	-0.390805	-0.307065	-0.167794	-0.191231	-0.405703	0.142394	-0.19012	-0.272661	0.00947545	0.0399563	0.523504	-0.173858	-0.326316	-0.0864413	0.019894	-0.328714	0.189369	-0.415411	-0.132538	-0.186412	0.0727979	-0.00580354	0.00326115	-0.344767	0.311121	-0.349246	-0.473907	0.0946226	-0.292561	0.650634	-0.322208	-0.521928	0.0251406	0.416663	0.32836	-0.253502	0.749441	0.488188	-0.0981928	-0.031774	-0.784545	-0.122096	-0.202331	-0.310908	-0.138952	-0.136775	0.181745	-0.388079	-0.367811	-0.492811	-0.292444	0.221	0.146893	-0.00251778	0.412865	0.414995	-0.0415047	0.212205	-0.220868	-0.275674	-0.0588458	0.672345	0.166961	0.86274	-0.0729861	0.47177	0.356277	-0.106453	-0.616511	0.275404	0.0356761	0.175184	-0.065538	0.238734	0.0191048	0.0799675	-0.106004	-0.0117591	0.291947	0.200057	-0.491241	-0.0583361	-0.289549	-0.0210277	0.356191	0.0636303	0.0663985	0.177758	0.401903	0.497173	0.338338	0.287704	-0.572536	-0.188677	0.329817	0.0559885	-0.434469	0.261578	0.0514588	0.124965	0.073993	0.44944	0.295841	0.400685	-0.0943943	-0.406674	0.38567	0.423948	0.0462521	0.466034	-0.301692	-0.164068	0.459477	0.145092	0.268426	0.134459	0.649034	0.336716	-0.590571	-0.502894	0.243521	0.0371502	0.187619	-0.0364993	-0.104665	-0.329837	0.312302	0.0887117	-0.101146	0.464639	0.119475	-0.285669	0.184286	0.402303	-0.249992	0.211966	0.279839	-0.19161	0.245016	-0.286708	0.0545079	-0.305974	0.247855	-0.0883686	0.377456	-0.190654	0.12441	0.654026	0.21555	0.308488	0.0467758	0.266289	0.24939	-0.300104	0.0234225	0.0145666	-0.287101	-0.37579	0.461547	-0.0633412	0.0368739	0.0506455	-0.441069	0.406888	-0.32046	0.0920008	-0.496246	-0.47321	-0.536136	-0.531992	0.32319	-0.351459	-0.445469	0.0606603	-0.208153	-0.391619	-0.107956	-0.298333	-0.397709	-0.115424	-0.592594	-0.134304	0.307642	0.136616	-0.106891	0.267663	-0.411527	-0.355411	-0.28399	0.0624256	0.00163274	0.25265	-0.353631	0.0611771	0.0146669	0.118213	-0.18088	0.302342	0.217481	0.416207	0.124912	0.238367	0.238456	-0.163441	0.0309759	-0.356799	0.231751	-0.377429	0.39523	-0.476165	-0.471557	-0.270745	-0.175619	-0.0776543	-0.391431	0.262313	0.44518	0.193342	-0.127561	0.122203	-0.162596	-0.17871	0.412281	-0.281893	-0.0553235	0.226819	0.206052	-0.186613	-0.102277	-0.246776	0.390522	0.0430377	-0.383214	-0.0457017	0.281182	0.161724	-0.252046	0.447622	0.123546	-0.178588	-0.100155	-0.483432	-0.2241	0.164675	0.0496502	-0.0955873	0.320258	0.104553	0.239628	0.119874	-0.1258	0.171694	-0.138923	-0.242198	-0.458452	0.162569	-0.299329	0.42927	0.0755299	-0.441758	-0.406937	0.296851	0.488751	0.319434	0.160677	0.480175	-0.0379684	-0.215128	0.209034	0.411777	-0.0226237	-0.0261028	0.190762	-0.438957	-0.0329389	-0.0403854	-0.433341	-0.157454	-0.329517	-0.120496	-0.305225	-0.140944	0.224882	-0.213131	0.334138	0.336969	0.180813	0.29367	-0.0820432	-0.109601	-0.264574	0.518256	-0.0989504	0.00371384	0.107996	-0.532815	0.348689	0.324183	0.422636	0.329279	-0.327143	-0.0569323	0.254387	0.380032	-0.0151158	-0.329395	-0.379635	-0.507143	-0.0505934	-0.304967	-0.0431185	-0.326269	-0.287903	-0.419072	0.248955	0.302698	-0.252922	-0.317621	0.314661	-0.127613	0.0283975	-0.00593585	-0.521096	-0.0938597	0.442686	0.487945	-0.0093234	0.257775	-0.442259	-0.427793	-0.296134	0.184702	0.468356	-0.346814	0.0521269	-0.103258	0.0333367	-0.0598502	0.547519	-0.382339	0.503008	-0.430029	0.0599155	-0.121164	-0.00917841	0.188131	-0.461913	0.00938444	0.107654	-0.503518	-0.305048	0.302026	0.48114	0.0517441	0.262782	0.278712	0.527881	0.119879	0.241522	0.0295037	-0.0232091	0.274838	-0.246157	0.294373	-0.525694	-0.299309	0.327157	-0.000301255	0.357718	0.0973948	0.0064177	0.192961	-0.0260534	0.215775	-0.124567	0.476196	0.293473	0.3352	-0.428495	-0.249107	-0.440549	-0.381769	0.667379	0.460697	0.756707	0.570474	0.563499	-0.13749	0.145232	0.132595	-0.356388	-0.502255	0.186085	0.0287593	0.728843	0.401745	-0.323942	0.526067	0.172261	0.250676	-0.357546	-0.224271	0.0648061	-0.332522	0.268487	-0.319605	-0.026017	-0.0867478	-0.0230278	0.425812	0.201675	0.585588	0.21826	-0.213576	0.300836	0.0350954	-0.467704	-0.110845	-0.354568	0.437902	0.202739	0.267896	0.644945	-0.015408	-0.34158	0.195937	-0.221402	-0.345683	0.00646911	0.409319	0.42098	-0.176473	0.223472	0.255669	0.252718	0.458203	0.365816	-0.0798707	0.305687	0.826602	0.28936	-0.393102	0.162152	-0.250555	-0.199283	0.627408	-0.132017	-0.660503	0.0486575	-0.229611	-0.212293	-0.191175	-0.271734	0.30503	0.0415098	-0.0165055	0.430988	0.135326	0.282434	-0.282429	-0.401092	-0.156085	-0.115584	-0.133553	0.643171	-0.166896	0.453406	0.135385	0.234854	0.698664	0.576233	0.575952	0.321795	0.482312	-0.0110414	-0.402211	-0.319288	-0.331315	-0.0423158	0.280154	-0.303933	-0.387944	-0.433114	-0.469543	0.0923561	0.317774	0.324463	-0.128894	-0.194952	-0.259239	-0.073934	0.277411	-0.275089	-0.0377896	0.00500172	0.68264	0.010606	0.279803	-0.0453193	0.0991225	-0.132619	-0.0904324	-0.073125	-0.319727	0.158715	0.383851	-0.375063	-0.324396	-0.0679933	0.137896	-0.40612	-0.490395	0.0849788	0.286218	-0.256775	-0.365024	0.478362	0.164349	0.116775	0.19603	-0.188052	0.232462	0.0629432	0.195495	0.286939	0.12278	-0.158263	0.401005	0.380585	0.477804	0.198612	0.168202	-0.644095	-0.00833697	0.19274	0.323676	-0.202322	-0.318807	0.263138	0.489471	0.443663	-0.443358	-0.403306	-0.102379	0.553677	0.00649901	-0.320073	-0.132135	-0.52886	0.216626	0.143492	0.820452	0.824158	-0.097514	0.0852295	-0.189729	-0.247	-0.495611	-0.344306	0.208118	-0.413448	-0.0781083	0.346714	-0.287723	0.13805	-0.0659434	-0.0516831	0.386868	0.0630055	-0.368087	-0.267153	-0.169891	-0.277018	-0.760182	0.251782	-0.376408	0.35764	0.613704	0.0591542	0.481906	0.143271	0.517718	-0.364045	0.245743	0.117237	-0.227068	-0.527897	-0.229064	-0.0564452	-0.322897	-0.289334	-0.170675	-0.0110101	0.495544	-0.185202	0.438838	0.286447	-0.0384023	0.242393	-0.451467	-0.103294	-0.24996	-0.120546	0.0521902	0.246544	0.129685	0.706949	-0.0265196	0.111812	-0.0273755	-0.0695596	-0.301186	0.176502	-0.0331558	0.392538	-0.333892	-0.143958	0.0757352	0.275422	-0.28586	0.368435	-0.264885	-0.538371	-0.263769	-0.250053	-0.18367	-0.0319844	0.0393781	-0.00655425	-0.284698	0.069335	0.0469176	0.376879	0.0832904	0.461417	-0.711024	-0.374182	-0.596546	0.374695	0.201327	-0.181961	-0.140795	0.14697	-0.0359847	-0.0982025	-0.409301	-0.38416	0.0757927	0.0643221	0.43755	0.188844	0.19165	0.15803	-0.0285531	-0.233604	-0.526226	-0.657709	-0.42052	-0.458611	0.28435	0.310062	-0.341577	-0.170983	-0.693199	-0.171798	-0.187424	-0.599765	-0.238274	-0.316335	-0.211854	-0.443294	-0.234846	0.462571	0.00513419	0.0913572	0.381928	0.150011	0.351316	-0.122381	-0.209196	0.04949	-0.498838	-1.09009	-0.089391	-0.498305	-0.27743	0.516544	0.410746	-0.150096	-0.176038	-0.0887787	0.0654328	-0.560897	0.00769852	0.0669668	-0.213737	0.293397	0.591555	-0.20737	0.353254	0.326555	0.112049	-0.0310788	0.129625	-0.371062	-0.544989	-0.0891289	-0.34957	-0.417684	0.133065	0.0728568	-0.26582	-0.0715638	-0.0835192	0.0295668	0.15894	0.177603	-0.0547493	0.0760457	0.627551	-0.317958	0.0840074	0.00767869	-0.261643	-0.263285	0.256198	0.388821	0.190565	-0.276238	-0.288202	0.135123	-0.119817	-0.455778	-0.128183	-0.154176	-0.256628	0.0482733	-0.0871776	0.316363	0.411868	-0.00915936	0.386986	0.411948	-0.5715	-0.519637	-0.255025	0.191252	-0.132832	0.0361653	-0.376478	-0.186142	0.254134	0.339777	-0.404233	-0.193633	0.11214	-0.498199	-0.556052	0.2449	-0.243563	-0.05665	-0.478639	0.340365	-0.31905	-0.116764	-0.185444	-0.232737	0.388551	0.413684	0.4893	0.115289	-0.240702	-0.253896	-0.524765	0.0555092	0.509003	-0.19838	-0.576535	0.42206	-0.122885	0.345485	-0.189604	0.100787	-0.249156	-0.046869	0.247728	-0.28289	0.233354	0.371732	0.208347	0.306068	-0.186001	0.348237	0.43887	-0.715914	0.0345786	-0.150075	-0.520667	-0.295999	0.186481	0.0795082	-0.249458	0.564849	0.359702	0.50362	0.145386	0.234657	-0.316026	-0.44242	-0.222159	-0.406858	0.471142	-0.420042	-0.0613475	-0.0366807	-0.109081	0.26285	-0.0235819	-0.625121	-0.770468	0.0874175	0.0342429	0.404748	0.16617	-0.218129	-0.00225725	0.16206	-0.19413	-0.191424	0.544793	0.529273	-0.345071	-0.077104	-0.187209	0.193167	-0.139066	-0.30517	0.199818	0.0170426	-0.328283	-0.103434	0.243411	0.302416	-0.235557	0.27891	0.0670648	0.0517801	-0.293827	0.265875	0.301355	0.329886	-0.0248332	-0.0503972	0.576819	0.590158	0.485723	-0.220732	-0.297807	0.177555	-0.0971722	0.12096	0.206137	-0.167478	0.499054	-0.166311	0.413205	0.0976135	-0.195069	0.289243	0.581669	0.117131	-0.218931	0.174052	-0.058665	0.225034	0.120143	0.139879	0.346096	0.182459	0.0656246	-0.248663	0.108341	-0.412005	0.0658841	0.473353	0.285198	0.494995	0.136555	0.176138	-0.389165	0.382626	0.176229	-0.0409101	-0.420011	-0.0224055	0.399472	-0.435989	-0.00387469	0.196789	-0.400565	-0.0983366	0.367806	0.502919	0.254217	-0.208875	-0.257215	-0.685335	-0.243021	0.394309	-0.516495	0.228347	-0.0840022	-0.282647	0.0692923	0.0750908	0.384243	0.390583	-0.0937071	0.292627	0.21984	0.500956	0.458566	0.074918	-0.0587225	0.0963012	-0.263919	-0.324613	-0.0688941	0.357241	0.364915	-0.332941	0.25535	-0.205744	0.0349363	-0.412351	0.0598012	0.450347	-0.359218	0.152821	0.411191	-0.327937	0.0231788	0.343501	0.335002	-0.0814448	-0.527992	0.143415	0.332599	0.0586657	-0.211729	0.0103243	0.208664	0.228714	0.19786	0.133246	0.0133706	-0.193776	0.113759	-0.0475078	0.260606	0.417929	0.192886	-0.388797	0.157149	-0.526802	0.057628	0.0774345	0.139753	-0.235258	0.422202	0.38306	0.187896	0.454872	0.494149	0.0679586	0.134306	0.483621	-0.444173	0.183288	-0.345354	0.0206549	-0.441579	-0.390399	0.247255	0.106809	0.272677	-0.144481	0.423774	-0.405811	0.480508	0.0599627	-0.187085	-0.0396497	0.157958	-0.431202	0.0551713	-0.250655	-0.347731	0.0884592	-0.29644	-0.270072	0.191459	0.217766	0.308193	-0.176716	-0.464384	0.275538	-0.0246424	-0.0336149	-0.325555	0.148977	-0.497099	-0.122748	-0.441281	0.100775	0.382627	-0.0409088	0.0253774	0.190849	-0.152851	0.18325	0.47052	-0.409084	0.176963	0.354132	-0.121845	0.486511	0.0659047	0.361934	0.128315	0.0937986	0.219382	-0.171255	0.43193	0.0776406	0.235954	0.321951	0.153475	-0.274364	-0.316602	0.247502	0.414229	-0.397624	0.491729	0.0533616	-0.157094	0.497497	-0.37637	-0.00340281	0.060564	-0.491028	0.117125	-0.160054	0.251793	0.109516	-0.161946	-0.497528	0.192953	-0.131245	-0.270472	0.0200726	-0.254327	0.149728	-0.528863	0.52818	0.408779	-0.369065	0.0311324	-0.170074	-0.530171	0.492592	0.171598	-0.422355	-0.477624	-0.295679	-0.207389	-0.154469	0.272088	0.0621921	0.0364238	-0.13744	0.290094	-0.0838801	-0.0422843	-0.117702	-0.08966	0.380141	0.161169	0.456731	0.303633	-0.0206568	0.270488	-0.315385	0.368045	0.0973519	0.410241	-0.170874	0.568676	-0.386884	-0.199267	0.29472	-0.303635	0.0724139	-0.350176	0.458556	-0.159159	-0.107837	-0.396359	-0.007828	0.074314	-0.0245668	0.274175	0.114394	0.316896	-0.150741	-0.0654779	-0.329244	-0.77599	-0.526791	-0.122941	0.798985	0.677311	0.632777	-0.0781946	-0.22259	-0.286533	-0.278696	0.304989	0.514308	-0.317826	-0.157696	-0.441893	-0.217205	0.0281533	-0.242149	-0.000259407	-0.329202	-0.240017	-0.374819	-0.0897359	0.560068	0.396433	0.296688	-0.0621999	-0.110072	-0.165831	0.197908	0.120551	0.267362	0.234934	0.464453	-0.257527	0.342986	-0.217691	0.07232	0.0549343	-0.133639	-0.430891	0.00893361	0.195863	0.429899	0.0247047	0.0977966	0.202956	0.241246	0.0434737	0.22753	0.489725	-0.228675	-0.380753	-0.486187	-0.108094	-0.344312	-0.278986	0.155257	0.63281	0.00121979	0.36139	0.167408	0.063982	0.109195	0.27498	0.55332	-0.401692	-0.187758	-0.151808	-0.20399	0.190023	-0.226006	-0.299219	0.135969	0.20657	0.0939552	0.0677252	0.0426709	-0.00804874	0.0825702	-0.762515	-0.500687	-0.0842965	-0.35147	-0.0929546	0.369457	0.50583	-0.104401	0.308226	0.118302	0.363937	0.0855152	-0.26715	-0.00263228	-0.233444	-0.177693	-0.460956	0.154012	-0.00923258	0.172148	-0.443978	0.20331	0.0773984	0.142556	-0.0168528	-0.316455	-0.14186	-0.241357	-0.360992	-0.185229	-0.490039	0.0762622	0.528895	0.0837687	-0.263182	-0.249513	0.05148	-0.348175	0.166753	0.238293	-0.470949	0.35075	0.273575	-0.393114	0.0477767	0.0337992	-0.241263	-0.00208982	-0.218375	-0.176977	-0.264748	-0.275125	0.633133	0.163233	-0.164355	-0.333665	-0.547386	0.0968804	0.171505	-0.0933962	0.226282	0.351932	-0.345886	-0.250741	-0.0548213	-0.0860113	0.0479863	-0.475644	0.271201	0.478446	-0.0130666	-0.413572	-0.106403	-0.307581	0.130995	0.024502	-0.254221	0.449619	0.348984	0.0633293	0.120099	-0.254582	-0.385344	-0.51182	-0.137789	0.268855	0.0507637	-0.329882	0.346975	0.372862	-0.21736	0.292419	-0.55886	-0.0525117	-0.626878	-0.395873	0.198965	0.180268	0.154164	-0.410489	0.380551	0.242554	0.544368	-0.232663	-0.397787	-0.285332	-0.0804359	0.41541	-0.13724	0.335533	0.0961636	0.690303	0.0396053	0.622393	0.508777	0.446785	-0.296831	0.165294	0.0360881	0.329892	-0.34642	0.125791	0.38689	0.490265	-0.180216	0.322779	0.439909	0.404184	-0.0160707	-0.428053	0.30497	-0.00704255	0.218738	-0.41842	-0.151653	-0.146782	0.201251	0.589227	0.523572	-0.18727	0.299851	0.284213	0.250326	0.549095	0.148262	-0.348857	-0.598976	-0.434148	0.0728732	-0.341757	0.0847773	0.0294762	-0.102283	0.2228	-0.380921	0.417097	0.154644	-0.057092	-0.497091	0.105982	0.0917875	0.0232675	-0.431095	0.424205	0.439351	-0.000278216	0.239001	-0.133515	-0.11841	0.307401	-0.10914	-0.0633178	-0.166321	0.248407	-0.334566	0.0279593	0.256472	0.00862875	-0.125832	-0.0241554	-0.10143	0.0535401	0.506838	0.151495	-0.501838	0.310382	-0.112191	0.394433	-0.581595	0.226878	0.379157	-0.190019	-0.19408	0.191206	-0.65558	0.341636	0.113984	-0.114882	-0.078272	-0.467561	-0.000949855	-0.0795287	0.235239	-0.195632	-0.318353	-0.0246026	-0.419492	-0.087239	0.36274	0.448245	-0.118346	0.180075	-0.308323	0.593079	-0.38475	0.314354	0.211541	-0.167339	0.168136	0.318023	0.25124	0.82339	0.58529	0.0553637	0.0339307	0.345554	0.326811	-0.284563	-0.0153266	0.243263	0.392145	0.42697	-0.443591	-0.337458	-0.136344	0.402109	-0.298577	0.161971	-0.437309	0.0069517	0.280412	0.20205	-0.6785	0.250404	-0.190954	0.137425	-0.0130619	-0.21413	1.02158	-0.0284396	0.202446	0.281981	-0.356513	0.302962	0.08258	-0.396742	0.167212	-0.201439	-0.0565966	-0.526388	-0.176199	-0.45822	-0.228705	-0.405144	-0.0597207	0.497673	-0.748699	-0.135136	0.832362	-0.492276	0.394679	0.108283	-0.753081	-0.48105	0.335507	0.379467	0.00465595	-0.346162	-0.225635	0.256798	-0.0349152	-0.266502	0.280183	-0.122056	0.107057	-0.167226	-0.364884	0.309992	0.292932	-0.0214551	0.447754	0.125202	-0.432423	-0.610373	-0.330056	-0.299025	0.00881299	-0.286581	-0.513154	-0.241826	-0.0428875	-0.634191	-0.213747	-0.697611	-0.076282	-0.390425	-0.321477	0.0112583	-0.207556	-0.266899	-0.153023	0.312986	0.0293435	-0.341354	-0.396786	0.15452	-0.36079	-0.0985064	-0.54556	-0.431349	-0.218773	-0.29512	-0.852718	-1.11645	-0.384012	0.330515	-0.236096	0.331528	-0.26739	-0.81013	-0.523085	-0.662392	-0.218233	-0.432191	0.301586	0.183931	-0.0994902	-0.156663	0.282519	-0.497342	0.355292	-0.0972472	-0.00398267	0.228436	0.429574	-0.118625	0.0413809	-0.0746904	0.205847	-0.245449	-0.82905	-0.607904	0.00650281	0.0791356	0.309154	-0.0215315	0.486255	0.470063	0.178215	0.206378	0.0512225	0.360773	-0.482344	-0.25877	-0.39933	0.100565	0.153645	-0.196941	-0.429594	0.269199	0.386238	0.315764	0.0234519	-0.320737	-0.0285531	-0.400245	0.438236	0.0845145	0.192311	0.363132	-0.127091	0.371788	-0.0513021	-0.278237	0.630418	-0.279572	0.138637	-0.268996	-0.60536	-0.430216	0.145865	-0.0272662	-0.147481	-0.092822	0.286045	0.186056	-0.175253	0.0467696	-0.412931	0.00880845	0.315087	0.467162	-0.328767	0.289421	0.63096	-0.136907	0.139143	0.0308717	0.143375	0.532762	0.0474619	-0.000150976	-0.139656	0.119428	0.422373	0.0889352	0.40395	-0.292375	-0.332484	-0.241661	0.153584	-0.139444	0.404538	0.193319	-0.181112	0.28811	0.323964	-0.485443	-0.279325	0.421277	-0.192702	-0.118069	0.0163067	-0.351925	0.141915	-0.0764283	0.441897	0.193557	-0.337272	0.0569636	-0.511213	-0.0103815	-0.00465338	-0.229331	-0.3717	0.081225	-0.203146	0.471252	0.292302	0.402951	0.473937	0.179342	-0.042899	0.0131024	-0.480259	-0.495549	0.00346385	0.252619	0.0914887	-0.2151	0.28754	-0.0905713	-0.464622	-0.0486268	0.469398	-0.190666	-0.48618	-0.192012	-0.329925	-0.0527818	-0.389492	0.0101169	0.150166	-0.308405	-0.251762	0.350344	0.455928	0.0897358	-0.296018	0.296011	-0.230006	0.435328	0.165208	0.334555	-0.360321	0.114425	0.502332	0.170854	0.408218	0.270648	0.454881	0.402368	0.0489936	-0.369964	0.0209113	-0.0203192	-0.0327349	0.386315	0.191485	0.0945578	0.413537	-0.0796724	-0.167832	-0.42879	0.491709	-0.0427306	0.133056	-0.372087	0.357397	0.184479	0.183716	-0.336136	0.531475	0.279392	-0.341172	0.124816	-0.0083362	-0.135996	0.52705	0.10153	-0.0242364	0.194154	-0.387102	-0.156718	0.0667088	0.0294152	-0.387041	-0.164591	-0.415789	-0.48745	-0.277931	-0.550919	-0.334237	-0.191685	-0.45448	-0.288002	-0.0395501	-0.175449	0.344769	0.123937	0.235299	-0.350198	0.374952	0.150336	-0.0192087	0.129736	0.308289	0.316997	-0.241919	0.232553	-0.197911	-0.54396	-0.117617	-0.489454	0.189247	0.109777	0.203014	0.0695975	0.0808283	-0.167074	-0.257714	0.448424	-0.266045	0.0458846	-0.036668	0.146563	0.45245	0.354762	-0.115985	-0.474039	-0.187993	-0.105959	0.167639	0.186076	-0.292576	0.0516221	-0.258995	0.151814	-0.467223	-0.101215	-0.273461	-0.391842	-0.0575426	0.359482	-0.0948973	-0.37701	-0.329859	-0.490173	-0.203207	-0.230583	0.0965758	-0.357565	0.223807	-0.41696	0.371443	-0.220449	-0.138586	0.63795	0.379742	-0.0221815	-0.230569	-0.0338809	0.232286	-0.349732	0.0648335	0.0844706	0.0451827	0.253319	0.376797	0.350246	0.214489	-0.0528428	-0.351314	-0.281854	-0.251366	0.156154	0.286641	-0.146571	0.253453	0.00403281	-0.108753	0.0868803	-0.0555874	0.125721	0.461429	0.776982	0.570091	0.349083	0.778385	-0.0895035	0.0799193	-0.311377	-0.05036	0.356799	-0.161954	0.0148695	-0.373928	-0.310033	0.229362	0.323023	-0.308405	-0.332221	-0.0464711	-0.13193	0.389844	-0.404919	0.385436	0.762866	-0.171666	0.355295	-0.239175	0.819261	0.210918	0.246683	0.231716	-0.0250911	0.299543	-0.0725898	-0.0955312	-0.168803	0.240863	-0.0767471	0.315813	-0.377468	-0.20389	-0.256157	0.421812	-0.455138	-0.0708916	0.410206	0.176787	-0.0188674	-0.226964	0.313382	0.0509394	0.249582	-0.00759153	-0.280489	-0.123742	0.800329	0.213975	-0.216063	-0.349072	-0.445824	0.441584	-0.00883508	0.663651	0.539827	0.32044	-0.399